~o
<STREAMINFO> 1 39
<VECSIZE> 39<NULLD><MFCC_E_D_A_Z><DIAGC>
~s "silst"
<NUMMIXES> 15
<MIXTURE> 1 6.151918e-02
<MEAN> 39
 -4.057400e+00 8.899856e-01 6.311303e+00 7.170930e+00 5.131556e+00 6.840204e+00 6.123291e-01 2.668072e+00 -5.317007e-01 1.868395e+00 1.566057e+00 -6.024072e-02 4.007756e-01 -3.277619e+00 -1.531962e+00 -9.694836e-01 1.711293e+00 1.926683e+00 2.940857e+00 3.025085e+00 3.475807e+00 2.296596e+00 2.431777e+00 1.614305e+00 9.687003e-01 -1.280118e-01 3.700800e-01 8.756364e-02 -5.249865e-01 -7.050472e-01 -5.900193e-01 -6.254894e-01 -5.822212e-02 -4.910523e-02 1.953300e-01 -2.298152e-01 -4.349777e-02 -1.179661e-01 2.157277e-02
<VARIANCE> 39
 1.708382e+01 3.557384e+01 1.848034e+01 2.486172e+01 2.443854e+01 3.569959e+01 3.199972e+01 2.906721e+01 3.449640e+01 3.172247e+01 3.075806e+01 3.076680e+01 2.457639e-02 1.617001e+00 1.911643e+00 2.575039e+00 1.772398e+00 2.918168e+00 3.042459e+00 3.227877e+00 2.845667e+00 2.993959e+00 3.001325e+00 3.838928e+00 3.623969e+00 1.424276e-03 2.501383e-01 5.599418e-01 3.566033e-01 5.280418e-01 5.283921e-01 6.712604e-01 6.078885e-01 6.960337e-01 7.382461e-01 6.628682e-01 5.159142e-01 5.341086e-01 3.784402e-04
<GCONST> 9.787534e+01
<MIXTURE> 2 4.311264e-02
<MEAN> 39
 -1.164215e+00 -5.185964e+00 -2.583612e+00 -2.670703e+00 2.538608e+00 7.200408e+00 7.614265e+00 5.787970e+00 5.003347e+00 3.297829e+00 3.466922e+00 1.608338e+00 5.025651e-01 -3.042408e-01 -8.918725e-01 -2.600842e-01 3.821880e-01 -1.573347e-01 -1.295842e-03 -7.068040e-01 -8.857729e-01 -2.494623e-01 1.050211e+00 8.378609e-01 5.607619e-01 1.490379e-02 3.400554e-02 3.763146e-01 3.301314e-01 2.659839e-01 -1.774057e-01 -5.521811e-01 -5.929598e-01 -4.910887e-01 -3.140590e-01 -6.626307e-02 -2.934202e-01 -1.253435e-01 6.938405e-03
<VARIANCE> 39
 1.822648e+01 7.442681e+01 3.865237e+01 7.284262e+01 5.823021e+01 8.376036e+01 6.674033e+01 7.412984e+01 9.408385e+01 1.393676e+02 1.366059e+02 1.190452e+02 5.590800e-02 1.977931e+00 5.734060e+00 4.196950e+00 5.283536e+00 4.033540e+00 7.358324e+00 7.710997e+00 7.944394e+00 9.823783e+00 1.107705e+01 1.095091e+01 9.082079e+00 1.126566e-02 2.788199e-01 5.621782e-01 5.429142e-01 8.287411e-01 7.390642e-01 1.156530e+00 1.123653e+00 1.262606e+00 1.774238e+00 2.648748e+00 2.592227e+00 2.238238e+00 9.018499e-04
<GCONST> 1.317977e+02
<MIXTURE> 3 7.891424e-02
<MEAN> 39
 2.634031e+00 4.846210e+00 7.341664e+00 4.795975e+00 8.835476e-01 1.489083e+00 -2.150140e+00 -2.519098e+00 -1.539874e+00 -1.141250e+00 -9.441885e-01 -1.071419e-01 6.111821e-01 -2.721325e+00 -1.072971e+00 -4.202110e-01 1.958783e+00 1.617022e+00 1.906685e+00 1.355229e+00 1.755805e+00 6.629847e-01 9.253417e-01 1.145767e+00 5.545199e-01 -1.187566e-01 -6.644619e-01 -7.122256e-01 -9.600758e-01 -6.506326e-01 -2.136906e-01 -1.849529e-02 4.190584e-01 5.631757e-01 5.246938e-01 3.531910e-01 2.398881e-01 9.345458e-02 -7.702056e-03
<VARIANCE> 39
 2.047593e+01 3.847818e+01 2.014537e+01 2.831572e+01 2.716239e+01 3.475644e+01 4.126810e+01 3.845627e+01 4.034079e+01 3.561749e+01 2.905711e+01 3.151500e+01 1.634010e-02 1.744514e+00 2.464147e+00 3.008802e+00 3.493949e+00 2.844568e+00 3.391476e+00 4.048437e+00 4.137419e+00 4.043620e+00 4.804103e+00 3.592445e+00 2.992492e+00 1.573040e-03 3.554818e-01 4.504361e-01 3.890729e-01 4.768562e-01 4.872777e-01 7.316864e-01 6.954252e-01 7.569888e-01 7.567733e-01 6.113037e-01 5.438440e-01 5.763367e-01 4.089154e-04
<GCONST> 1.017490e+02
<MIXTURE> 4 4.138706e-02
<MEAN> 39
 -1.100119e+00 -2.523276e+00 1.560931e+00 2.086023e+00 3.482250e-01 7.208042e-01 3.707545e+00 2.144617e+00 1.713211e+00 3.938142e+00 2.322661e+00 2.230857e+00 4.014391e-01 3.407720e-01 -2.172576e-02 -6.794960e-01 8.059896e-02 -4.167196e-01 -5.580173e-01 -2.585623e-01 -9.411839e-02 -3.317565e-01 2.110519e-01 -1.153995e-01 -2.467477e-01 5.194915e-02 2.635113e-01 2.620213e-01 -2.180924e-01 -3.700412e-01 -8.134268e-03 2.288951e-02 -3.385398e-01 -1.073728e-01 -1.671529e-01 -3.950360e-01 -2.769223e-01 -1.864287e-01 2.210382e-02
<VARIANCE> 39
 2.432089e+01 6.025899e+01 4.179634e+01 4.834942e+01 6.516045e+01 5.973661e+01 6.327415e+01 5.909862e+01 5.253764e+01 4.561597e+01 6.221463e+01 4.244376e+01 8.035101e-02 3.815700e+00 6.530916e+00 4.393888e+00 6.133306e+00 4.758554e+00 5.548369e+00 6.204491e+00 6.495519e+00 5.940381e+00 4.344630e+00 4.668972e+00 4.173316e+00 1.103267e-02 4.626204e-01 8.434286e-01 6.281245e-01 9.051931e-01 1.139038e+00 1.066344e+00 1.152028e+00 1.089444e+00 1.003604e+00 8.224747e-01 9.978161e-01 8.252921e-01 1.076894e-03
<GCONST> 1.231002e+02
<MIXTURE> 5 7.891488e-02
<MEAN> 39
 2.634059e+00 4.846041e+00 7.341783e+00 4.795990e+00 8.835160e-01 1.489127e+00 -2.150053e+00 -2.519222e+00 -1.539850e+00 -1.141168e+00 -9.441681e-01 -1.069596e-01 6.111771e-01 -2.721330e+00 -1.072966e+00 -4.202566e-01 1.958727e+00 1.616985e+00 1.906657e+00 1.355216e+00 1.755811e+00 6.630151e-01 9.253123e-01 1.145736e+00 5.544696e-01 -1.187545e-01 -6.644513e-01 -7.122029e-01 -9.600918e-01 -6.506270e-01 -2.136816e-01 -1.850185e-02 4.190486e-01 5.631912e-01 5.246861e-01 3.531894e-01 2.398864e-01 9.343934e-02 -7.700406e-03
<VARIANCE> 39
 2.047627e+01 3.847875e+01 2.014614e+01 2.831678e+01 2.716285e+01 3.475731e+01 4.126955e+01 3.845749e+01 4.034192e+01 3.562001e+01 2.905861e+01 3.151609e+01 1.634067e-02 1.744588e+00 2.464242e+00 3.008948e+00 3.494037e+00 2.844594e+00 3.391560e+00 4.048522e+00 4.137463e+00 4.043663e+00 4.804196e+00 3.592564e+00 2.992563e+00 1.573271e-03 3.554985e-01 4.504741e-01 3.890919e-01 4.768791e-01 4.872866e-01 7.317029e-01 6.954480e-01 7.570094e-01 7.568036e-01 6.113522e-01 5.438681e-01 5.763597e-01 4.089639e-04
<GCONST> 1.017505e+02
<MIXTURE> 6 9.205925e-02
<MEAN> 39
 -1.988243e+00 -1.858433e+00 2.373775e+00 3.301824e+00 3.366498e+00 3.794178e+00 1.872154e+00 2.160294e+00 2.790993e+00 1.719262e+00 1.630167e+00 1.174457e+00 1.107229e-01 -8.612713e-01 -3.148162e-01 -3.490444e-01 9.469822e-02 4.967523e-02 2.845487e-01 2.849785e-01 4.944435e-01 2.694381e-01 2.668162e-01 1.939498e-01 -2.792520e-02 -3.569523e-02 1.717124e-01 2.294595e-01 -3.422737e-02 -6.857223e-02 -1.082120e-01 -1.337281e-01 -9.383442e-02 -5.782571e-02 -4.659387e-02 -4.434792e-02 -5.017621e-02 -2.767703e-02 2.128348e-02
<VARIANCE> 39
 1.336088e+01 4.161372e+01 2.407049e+01 2.787050e+01 2.492607e+01 2.768197e+01 2.770712e+01 3.237454e+01 2.857081e+01 2.849812e+01 2.715397e+01 2.106005e+01 4.443362e-02 1.924068e+00 1.929131e+00 1.823302e+00 1.793912e+00 1.865941e+00 2.225506e+00 2.382668e+00 2.739024e+00 2.618009e+00 2.357542e+00 2.285594e+00 1.931823e+00 4.287284e-03 2.237933e-01 3.522111e-01 2.811740e-01 3.692067e-01 3.396853e-01 3.734800e-01 4.041604e-01 4.493592e-01 4.806709e-01 4.519668e-01 4.041078e-01 3.668183e-01 4.830465e-04
<GCONST> 9.178145e+01
<MIXTURE> 7 4.138781e-02
<MEAN> 39
 -1.100448e+00 -2.523473e+00 1.560877e+00 2.086456e+00 3.491290e-01 7.215250e-01 3.707707e+00 2.144994e+00 1.713468e+00 3.938213e+00 2.322831e+00 2.230827e+00 4.014071e-01 3.408571e-01 -2.163304e-02 -6.794047e-01 8.046044e-02 -4.168627e-01 -5.580366e-01 -2.586599e-01 -9.432636e-02 -3.318420e-01 2.110843e-01 -1.154627e-01 -2.467500e-01 5.195925e-02 2.635719e-01 2.620307e-01 -2.180984e-01 -3.700778e-01 -8.249842e-03 2.282349e-02 -3.385313e-01 -1.074286e-01 -1.672104e-01 -3.950432e-01 -2.769329e-01 -1.864161e-01 2.210676e-02
<VARIANCE> 39
 2.432065e+01 6.025951e+01 4.179546e+01 4.834927e+01 6.515610e+01 5.973438e+01 6.326948e+01 5.909686e+01 5.253613e+01 4.561486e+01 6.220960e+01 4.244116e+01 8.035214e-02 3.815682e+00 6.531490e+00 4.393943e+00 6.133080e+00 4.758482e+00 5.548176e+00 6.204523e+00 6.495588e+00 5.940409e+00 4.344684e+00 4.669035e+00 4.173255e+00 1.103314e-02 4.626445e-01 8.434464e-01 6.281295e-01 9.051580e-01 1.138967e+00 1.066326e+00 1.151934e+00 1.089412e+00 1.003588e+00 8.224681e-01 9.977882e-01 8.252813e-01 1.076980e-03
<GCONST> 1.230998e+02
<MIXTURE> 8 5.807634e-02
<MEAN> 39
 6.273438e+00 6.989231e+00 -1.433120e+00 -4.032523e+00 -3.468702e+00 -3.222790e+00 -1.604949e+00 1.863380e+00 2.722239e+00 4.651478e+00 4.565492e+00 4.878425e+00 6.694521e-01 1.441150e+00 1.092941e+00 -2.358461e+00 -2.457766e+00 -1.970621e+00 -2.476696e+00 -1.375857e+00 -1.792490e+00 -1.799919e+00 -1.395614e+00 -1.239084e+00 -4.458039e-01 1.644385e-01 -9.387256e-01 -6.018997e-01 3.539339e-01 6.004548e-01 7.076127e-01 7.550445e-01 4.483435e-01 2.539112e-01 -1.428770e-01 -4.058710e-01 -5.263993e-01 -5.649497e-01 -3.965903e-02
<VARIANCE> 39
 3.577517e+01 6.151300e+01 4.579214e+01 3.275703e+01 3.213421e+01 4.147644e+01 4.941747e+01 3.460943e+01 3.764205e+01 3.803624e+01 4.093611e+01 4.407885e+01 1.823906e-02 4.242431e+00 4.841183e+00 3.892256e+00 3.080404e+00 3.432707e+00 3.593914e+00 3.627860e+00 2.803086e+00 3.019619e+00 3.784431e+00 4.530574e+00 5.743002e+00 3.938442e-03 3.050188e-01 4.010912e-01 5.543187e-01 4.952564e-01 5.923299e-01 6.571827e-01 8.781803e-01 6.402955e-01 5.770448e-01 6.369952e-01 6.344435e-01 6.993476e-01 3.196274e-04
<GCONST> 1.078084e+02
<MIXTURE> 9 7.891688e-02
<MEAN> 39
 2.633627e+00 4.845837e+00 7.341732e+00 4.796469e+00 8.839390e-01 1.489642e+00 -2.149583e+00 -2.518889e+00 -1.539685e+00 -1.140945e+00 -9.440439e-01 -1.069199e-01 6.111642e-01 -2.721476e+00 -1.073094e+00 -4.204529e-01 1.958563e+00 1.616926e+00 1.906678e+00 1.355242e+00 1.755911e+00 6.631131e-01 9.253103e-01 1.145814e+00 5.544869e-01 -1.187567e-01 -6.643852e-01 -7.121538e-01 -9.600863e-01 -6.506828e-01 -2.137430e-01 -1.858631e-02 4.189812e-01 5.631341e-01 5.246600e-01 3.531559e-01 2.398621e-01 9.344199e-02 -7.698223e-03
<VARIANCE> 39
 2.047650e+01 3.847901e+01 2.014588e+01 2.831657e+01 2.716298e+01 3.475597e+01 4.126841e+01 3.845728e+01 4.034134e+01 3.561957e+01 2.905798e+01 3.151464e+01 1.634092e-02 1.744558e+00 2.464269e+00 3.008958e+00 3.493960e+00 2.844599e+00 3.391555e+00 4.048575e+00 4.137375e+00 4.043558e+00 4.804116e+00 3.592495e+00 2.992548e+00 1.573266e-03 3.554973e-01 4.505004e-01 3.890786e-01 4.768739e-01 4.872690e-01 7.316659e-01 6.954314e-01 7.569950e-01 7.567985e-01 6.113557e-01 5.438689e-01 5.763484e-01 4.089751e-04
<GCONST> 1.017502e+02
<MIXTURE> 10 9.205193e-02
<MEAN> 39
 -1.988229e+00 -1.858678e+00 2.373963e+00 3.302108e+00 3.366640e+00 3.794224e+00 1.872355e+00 2.160154e+00 2.790776e+00 1.719340e+00 1.630142e+00 1.174563e+00 1.107550e-01 -8.614669e-01 -3.149177e-01 -3.491555e-01 9.469731e-02 4.968338e-02 2.846164e-01 2.850531e-01 4.945624e-01 2.695467e-01 2.668929e-01 1.940109e-01 -2.792805e-02 -3.570220e-02 1.717329e-01 2.294991e-01 -3.425884e-02 -6.861591e-02 -1.082466e-01 -1.337667e-01 -9.385934e-02 -5.783065e-02 -4.659057e-02 -4.435857e-02 -5.019063e-02 -2.769031e-02 2.128585e-02
<VARIANCE> 39
 1.336204e+01 4.161478e+01 2.407181e+01 2.787262e+01 2.492745e+01 2.768286e+01 2.770842e+01 3.237576e+01 2.857288e+01 2.849988e+01 2.715492e+01 2.106164e+01 4.443649e-02 1.924308e+00 1.929332e+00 1.823587e+00 1.794098e+00 1.866078e+00 2.225719e+00 2.382901e+00 2.739269e+00 2.618251e+00 2.357696e+00 2.285775e+00 1.931967e+00 4.287748e-03 2.238183e-01 3.522470e-01 2.812065e-01 3.692581e-01 3.397081e-01 3.735014e-01 4.041876e-01 4.493875e-01 4.807065e-01 4.520042e-01 4.041329e-01 3.668492e-01 4.830799e-04
<GCONST> 9.178455e+01
<MIXTURE> 11 9.205733e-02
<MEAN> 39
 -1.988256e+00 -1.858494e+00 2.373762e+00 3.301847e+00 3.366518e+00 3.794183e+00 1.872190e+00 2.160293e+00 2.790982e+00 1.719275e+00 1.630176e+00 1.174473e+00 1.107239e-01 -8.612787e-01 -3.148202e-01 -3.490459e-01 9.469803e-02 4.967565e-02 2.845511e-01 2.849788e-01 4.944449e-01 2.694421e-01 2.668182e-01 1.939503e-01 -2.792563e-02 -3.569571e-02 1.717161e-01 2.294643e-01 -3.422655e-02 -6.857298e-02 -1.082136e-01 -1.337302e-01 -9.383787e-02 -5.782777e-02 -4.659460e-02 -4.434944e-02 -5.017847e-02 -2.767822e-02 2.128368e-02
<VARIANCE> 39
 1.336090e+01 4.161375e+01 2.407054e+01 2.787059e+01 2.492614e+01 2.768199e+01 2.770721e+01 3.237465e+01 2.857093e+01 2.849821e+01 2.715404e+01 2.106017e+01 4.443335e-02 1.924063e+00 1.929133e+00 1.823304e+00 1.793916e+00 1.865936e+00 2.225501e+00 2.382673e+00 2.739029e+00 2.618013e+00 2.357545e+00 2.285597e+00 1.931818e+00 4.287289e-03 2.237938e-01 3.522127e-01 2.811741e-01 3.692061e-01 3.396856e-01 3.734798e-01 4.041606e-01 4.493607e-01 4.806720e-01 4.519686e-01 4.041086e-01 3.668200e-01 4.830485e-04
<GCONST> 9.178156e+01
<MIXTURE> 12 1.126268e-01
<MEAN> 39
 -5.604589e+00 4.419747e-02 3.387601e+00 7.628757e+00 4.672012e+00 7.906229e+00 2.595428e+00 4.312502e+00 3.240391e+00 1.025620e+00 2.528745e+00 1.683009e+00 4.177473e-01 -3.184248e+00 -2.346236e+00 -2.199419e+00 -5.064672e-01 1.177083e-01 4.899147e-01 4.275343e-01 1.260736e+00 8.545967e-01 5.926931e-01 1.253275e+00 9.783043e-01 -1.251665e-01 4.014985e-01 -4.011372e-02 -2.745203e-01 -8.416800e-01 -7.020252e-01 -7.893556e-01 -2.115210e-01 -4.415691e-01 -2.833866e-02 2.725589e-02 -3.556151e-01 -1.096464e-01 1.653068e-02
<VARIANCE> 39
 2.532049e+01 3.523520e+01 2.086929e+01 1.996526e+01 2.413464e+01 3.229604e+01 3.626517e+01 3.742310e+01 2.688619e+01 2.960281e+01 2.565310e+01 1.769712e+01 1.740975e-02 1.128702e+00 1.379468e+00 1.581778e+00 1.959553e+00 1.925972e+00 2.569973e+00 2.995510e+00 3.141624e+00 2.797598e+00 3.044794e+00 2.759492e+00 2.328019e+00 9.856581e-04 3.240619e-01 4.376430e-01 3.188775e-01 3.589331e-01 3.882794e-01 5.025526e-01 5.638205e-01 5.498046e-01 5.184114e-01 5.731418e-01 5.260646e-01 4.118783e-01 3.595855e-04
<GCONST> 9.201740e+01
<MIXTURE> 13 4.138660e-02
<MEAN> 39
 -1.100546e+00 -2.523510e+00 1.560907e+00 2.086597e+00 3.493911e-01 7.217554e-01 3.707776e+00 2.145099e+00 1.713560e+00 3.938236e+00 2.322858e+00 2.230800e+00 4.013980e-01 3.408827e-01 -2.160275e-02 -6.793846e-01 8.041757e-02 -4.169084e-01 -5.580442e-01 -2.586877e-01 -9.438272e-02 -3.318644e-01 2.110940e-01 -1.154779e-01 -2.467467e-01 5.196239e-02 2.635899e-01 2.620319e-01 -2.181063e-01 -3.700913e-01 -8.283392e-03 2.280050e-02 -3.385315e-01 -1.074446e-01 -1.672295e-01 -3.950454e-01 -2.769316e-01 -1.864101e-01 2.210761e-02
<VARIANCE> 39
 2.432054e+01 6.025990e+01 4.179553e+01 4.834939e+01 6.515520e+01 5.973403e+01 6.326817e+01 5.909678e+01 5.253588e+01 4.561467e+01 6.220828e+01 4.244032e+01 8.035269e-02 3.815688e+00 6.531691e+00 4.393983e+00 6.133057e+00 4.758482e+00 5.548130e+00 6.204539e+00 6.495617e+00 5.940403e+00 4.344703e+00 4.669059e+00 4.173242e+00 1.103328e-02 4.626532e-01 8.434566e-01 6.281385e-01 9.051518e-01 1.138955e+00 1.066327e+00 1.151914e+00 1.089413e+00 1.003591e+00 8.224687e-01 9.977826e-01 8.252785e-01 1.077012e-03
<GCONST> 1.230998e+02
<MIXTURE> 14 4.378915e-02
<MEAN> 39
 7.724515e+00 5.787369e+00 4.123026e+00 -1.785474e+00 -1.949614e+00 -2.799889e+00 -5.180750e+00 -4.649822e+00 -2.248596e+00 -1.858156e+00 -2.223785e+00 -3.218226e-01 6.469342e-01 1.081221e+00 1.062825e+00 -8.667307e-01 -1.404034e+00 -8.618804e-01 -7.141108e-01 -9.110985e-01 -3.053351e-01 -6.326960e-01 -9.195785e-02 -1.413777e-01 -5.031530e-01 1.108768e-01 -1.184309e+00 -5.910439e-01 -3.945449e-01 9.478837e-02 3.917013e-01 5.407037e-01 6.981791e-01 8.060642e-01 6.539412e-01 3.544889e-01 4.572679e-01 2.021694e-01 -3.577040e-02
<VARIANCE> 39
 2.463100e+01 4.285359e+01 6.301378e+01 4.161517e+01 4.196902e+01 3.620049e+01 4.398214e+01 4.053794e+01 4.204664e+01 3.543983e+01 3.618379e+01 3.037272e+01 1.949937e-02 4.593885e+00 2.932982e+00 4.064347e+00 3.809139e+00 3.599406e+00 3.374305e+00 3.891043e+00 3.643247e+00 4.017026e+00 3.504533e+00 3.874950e+00 3.938892e+00 5.169440e-03 3.703635e-01 3.166511e-01 6.721578e-01 8.531637e-01 5.707874e-01 6.576990e-01 8.319799e-01 7.853127e-01 7.126277e-01 6.177202e-01 6.198739e-01 6.498786e-01 3.208049e-04
<GCONST> 1.084091e+02
<MIXTURE> 15 4.378690e-02
<MEAN> 39
 7.724597e+00 5.787399e+00 4.122943e+00 -1.785655e+00 -1.949577e+00 -2.799986e+00 -5.180873e+00 -4.649835e+00 -2.248700e+00 -1.858152e+00 -2.223796e+00 -3.217992e-01 6.469362e-01 1.081164e+00 1.062778e+00 -8.667408e-01 -1.404016e+00 -8.618312e-01 -7.140824e-01 -9.110621e-01 -3.053083e-01 -6.326896e-01 -9.195525e-02 -1.413899e-01 -5.031700e-01 1.108743e-01 -1.184324e+00 -5.910391e-01 -3.945332e-01 9.481232e-02 3.917029e-01 5.407177e-01 6.981971e-01 8.060756e-01 6.539561e-01 3.544907e-01 4.572719e-01 2.021642e-01 -3.577057e-02
<VARIANCE> 39
 2.463109e+01 4.285368e+01 6.301464e+01 4.161570e+01 4.196928e+01 3.620097e+01 4.398295e+01 4.053803e+01 4.204668e+01 3.544060e+01 3.618431e+01 3.037352e+01 1.949949e-02 4.593924e+00 2.932927e+00 4.064312e+00 3.809186e+00 3.599337e+00 3.374310e+00 3.891019e+00 3.643223e+00 4.017004e+00 3.504580e+00 3.874957e+00 3.938947e+00 5.169450e-03 3.703704e-01 3.166561e-01 6.721697e-01 8.531764e-01 5.707954e-01 6.577117e-01 8.320009e-01 7.853193e-01 7.126333e-01 6.177398e-01 6.198849e-01 6.498968e-01 3.208060e-04
<GCONST> 1.084095e+02
~h "#i"
<BEGINHMM>
<NUMSTATES> 10
<STATE> 2
<NUMMIXES> 10
<MIXTURE> 1 9.659756e-03
<MEAN> 39
 -4.127560e+00 1.217893e+01 -6.712008e+00 -3.552762e+00 -1.107950e+01 -7.819189e+00 -2.541743e+00 -3.161447e+00 3.228553e+00 5.498537e+00 8.810892e+00 1.374927e+01 8.588098e-01 3.036437e-01 5.128291e-01 4.618501e-01 9.363451e-01 4.581449e-01 9.830072e-01 4.501764e-01 3.967100e-01 1.303491e+00 1.329541e+00 1.308333e+00 1.052307e+00 1.530779e-02 3.274731e-01 2.198018e-01 2.583363e-01 2.788324e-01 5.013632e-01 2.929403e-01 3.668569e-01 4.148122e-01 -9.607382e-03 -4.980978e-01 -6.648510e-01 -8.010025e-01 -5.452272e-03
<VARIANCE> 39
 1.668085e+01 1.761702e+01 1.914806e+01 1.214523e+01 1.483095e+01 1.785396e+01 2.666070e+01 1.234289e+01 3.914275e+01 6.899815e+01 6.103509e+01 6.288760e+01 6.124439e-03 5.039026e-01 7.841139e-01 1.161034e+00 4.990162e-01 1.431885e+00 1.375133e+00 2.089816e+00 6.376419e-01 1.126921e+00 2.762739e+00 1.510666e+00 3.529943e+00 8.045141e-05 8.662140e-02 9.474909e-02 1.697960e-01 1.107203e-01 3.200309e-01 2.073705e-01 4.776571e-01 1.230787e-01 3.209757e-01 4.799825e-01 5.515295e-01 5.152965e-01 3.174951e-05
<GCONST> 7.030615e+01
<MIXTURE> 2 4.106042e-02
<MEAN> 39
 -2.399352e+00 1.018621e+01 -6.114005e+00 -4.206453e+00 -6.496733e+00 -6.054388e+00 -7.283863e-01 -1.252475e+00 1.801986e+00 2.431943e+00 3.906421e+00 6.276247e+00 8.571494e-01 -9.870747e-01 -1.998036e-01 -1.921028e-01 1.441245e-01 -2.620960e-01 -3.323259e-01 -9.170153e-01 -9.398643e-01 -1.036255e-01 5.402647e-01 1.418398e+00 1.829505e+00 3.337412e-02 3.057221e-01 -7.575026e-02 3.601992e-01 3.555008e-01 3.429500e-01 3.811458e-01 2.802140e-01 4.239345e-01 2.217539e-01 1.481555e-01 -1.261995e-01 -2.555687e-01 -1.687009e-02
<VARIANCE> 39
 1.817218e+01 3.548650e+01 2.626681e+01 1.824868e+01 2.600109e+01 2.628515e+01 3.370203e+01 3.398142e+01 6.466936e+01 7.782772e+01 7.373422e+01 1.041162e+02 7.284883e-03 6.330128e-01 6.226108e-01 8.653432e-01 1.265724e+00 1.289066e+00 1.171910e+00 1.637797e+00 1.789199e+00 3.418713e+00 4.299518e+00 6.215162e+00 6.549192e+00 3.581877e-04 1.461361e-01 2.078835e-01 2.349011e-01 2.264898e-01 3.667491e-01 3.770761e-01 3.319516e-01 3.546522e-01 5.055355e-01 7.707074e-01 8.265966e-01 1.003183e+00 2.465937e-04
<GCONST> 8.956117e+01
<MIXTURE> 3 1.218124e-01
<MEAN> 39
 -5.192310e-01 1.153028e+01 -2.672247e+00 -2.233191e+00 -5.711994e+00 -4.790223e+00 -4.564330e+00 -4.783474e-01 -4.902906e+00 -2.197987e+00 -2.989532e+00 -2.575879e-01 8.212080e-01 -1.899626e-02 4.852191e-01 9.487517e-02 5.105602e-01 -2.743487e-02 9.922443e-02 -8.749762e-02 -2.104617e-01 -1.828979e-01 -1.018846e-01 -2.051117e-01 4.618232e-01 1.445536e-02 6.938317e-02 -3.988288e-02 6.775959e-02 -4.484634e-02 1.643238e-01 7.596539e-03 1.342878e-01 1.622474e-01 3.707754e-01 1.831909e-01 2.457131e-01 4.067287e-02 -1.887960e-03
<VARIANCE> 39
 1.012686e+01 3.298675e+01 1.951556e+01 1.888268e+01 2.044605e+01 2.957011e+01 3.408286e+01 3.537355e+01 2.494988e+01 2.669584e+01 3.981173e+01 3.841006e+01 1.002490e-02 4.469122e-01 7.053687e-01 8.479174e-01 1.058242e+00 1.236457e+00 1.217021e+00 1.661223e+00 1.577541e+00 1.873411e+00 1.715285e+00 1.863638e+00 1.797329e+00 2.765587e-04 7.670487e-02 9.699353e-02 1.508911e-01 2.033538e-01 2.153267e-01 2.957442e-01 2.811841e-01 2.995399e-01 3.240193e-01 2.753532e-01 3.369190e-01 3.134209e-01 6.062105e-05
<GCONST> 7.243216e+01
<MIXTURE> 4 9.957042e-02
<MEAN> 39
 1.389759e+00 1.277001e+01 -1.632696e+00 -2.069158e+00 -3.820792e+00 -4.587737e+00 -6.000150e-01 2.084291e+00 5.170388e-01 1.864908e+00 -3.673262e-01 1.566669e+00 7.198696e-01 -1.325138e-01 1.112159e+00 -3.760672e-01 5.183013e-01 -7.348770e-01 -2.523133e-01 -8.107463e-01 -5.380450e-01 -6.088539e-01 -4.105539e-01 -3.700736e-01 1.554940e-01 1.861222e-02 -1.203928e-01 -4.803765e-01 -2.669802e-03 -1.503593e-01 -8.439385e-02 4.405538e-02 -1.532240e-01 -1.840747e-01 -2.327681e-01 -2.740766e-01 -1.344626e-01 -1.438568e-01 4.199150e-03
<VARIANCE> 39
 1.302084e+01 2.796388e+01 2.047440e+01 2.708925e+01 2.082941e+01 2.377820e+01 4.880172e+01 3.013086e+01 2.982603e+01 3.383293e+01 4.126958e+01 4.989301e+01 1.423617e-02 7.457700e-01 1.615856e+00 1.186862e+00 1.949668e+00 1.715186e+00 2.355837e+00 2.146775e+00 2.396894e+00 2.415292e+00 2.675290e+00 3.522223e+00 2.963498e+00 9.939121e-04 1.307810e-01 2.898305e-01 2.217307e-01 3.014205e-01 3.771036e-01 5.380394e-01 4.188701e-01 3.964250e-01 3.934368e-01 4.276858e-01 5.334163e-01 5.848362e-01 1.632894e-04
<GCONST> 8.800800e+01
<MIXTURE> 5 1.218122e-01
<MEAN> 39
 -5.192246e-01 1.153031e+01 -2.672261e+00 -2.233179e+00 -5.711979e+00 -4.790201e+00 -4.564277e+00 -4.783777e-01 -4.902892e+00 -2.197995e+00 -2.989512e+00 -2.575111e-01 8.212080e-01 -1.899637e-02 4.852172e-01 9.487746e-02 5.105609e-01 -2.742946e-02 9.922327e-02 -8.749962e-02 -2.104596e-01 -1.828888e-01 -1.018836e-01 -2.051068e-01 4.618247e-01 1.445546e-02 6.938331e-02 -3.988281e-02 6.775942e-02 -4.484577e-02 1.643207e-01 7.593157e-03 1.342834e-01 1.622495e-01 3.707753e-01 1.831921e-01 2.457106e-01 4.066782e-02 -1.887974e-03
<VARIANCE> 39
 1.012690e+01 3.298671e+01 1.951564e+01 1.888254e+01 2.044599e+01 2.956995e+01 3.408276e+01 3.537344e+01 2.494983e+01 2.669586e+01 3.981152e+01 3.840981e+01 1.002491e-02 4.469140e-01 7.053659e-01 8.479125e-01 1.058242e+00 1.236447e+00 1.217022e+00 1.661217e+00 1.577536e+00 1.873414e+00 1.715279e+00 1.863642e+00 1.797328e+00 2.765591e-04 7.670519e-02 9.699373e-02 1.508909e-01 2.033513e-01 2.153241e-01 2.957404e-01 2.811830e-01 2.995390e-01 3.240190e-01 2.753524e-01 3.369160e-01 3.134201e-01 6.062078e-05
<GCONST> 7.243205e+01
<MIXTURE> 6 9.957272e-02
<MEAN> 39
 1.389387e+00 1.276985e+01 -1.632692e+00 -2.069449e+00 -3.820547e+00 -4.588304e+00 -5.997896e-01 2.084066e+00 5.173109e-01 1.864834e+00 -3.671644e-01 1.566527e+00 7.198747e-01 -1.324815e-01 1.112294e+00 -3.761525e-01 5.185181e-01 -7.349587e-01 -2.522807e-01 -8.107705e-01 -5.381151e-01 -6.088943e-01 -4.105613e-01 -3.700251e-01 1.555487e-01 1.860782e-02 -1.203411e-01 -4.804072e-01 -2.634285e-03 -1.503603e-01 -8.444003e-02 4.415250e-02 -1.532310e-01 -1.840427e-01 -2.328058e-01 -2.740729e-01 -1.345064e-01 -1.438688e-01 4.200104e-03
<VARIANCE> 39
 1.302134e+01 2.796313e+01 2.047493e+01 2.709125e+01 2.082968e+01 2.378006e+01 4.880018e+01 3.013185e+01 2.982701e+01 3.383395e+01 4.127074e+01 4.989190e+01 1.423607e-02 7.457578e-01 1.615963e+00 1.186928e+00 1.949978e+00 1.715358e+00 2.356173e+00 2.146919e+00 2.397021e+00 2.415536e+00 2.675565e+00 3.522454e+00 2.963817e+00 9.938645e-04 1.307878e-01 2.898339e-01 2.217432e-01 3.014451e-01 3.771277e-01 5.381324e-01 4.188724e-01 3.964565e-01 3.934634e-01 4.277273e-01 5.334308e-01 5.848372e-01 1.632508e-04
<GCONST> 8.800970e+01
<MIXTURE> 7 9.957188e-02
<MEAN> 39
 1.389662e+00 1.276997e+01 -1.632713e+00 -2.069221e+00 -3.820751e+00 -4.587906e+00 -5.999374e-01 2.084267e+00 5.171006e-01 1.864898e+00 -3.673324e-01 1.566599e+00 7.198704e-01 -1.324999e-01 1.112196e+00 -3.760867e-01 5.183601e-01 -7.349015e-01 -2.523013e-01 -8.107527e-01 -5.380617e-01 -6.088711e-01 -4.105510e-01 -3.700716e-01 1.555184e-01 1.861095e-02 -1.203796e-01 -4.803854e-01 -2.658057e-03 -1.503625e-01 -8.440160e-02 4.408345e-02 -1.532261e-01 -1.840698e-01 -2.327755e-01 -2.740763e-01 -1.344684e-01 -1.438556e-01 4.199450e-03
<VARIANCE> 39
 1.302103e+01 2.796359e+01 2.047458e+01 2.708996e+01 2.082946e+01 2.377881e+01 4.880140e+01 3.013138e+01 2.982640e+01 3.383350e+01 4.127026e+01 4.989302e+01 1.423612e-02 7.457701e-01 1.615889e+00 1.186886e+00 1.949758e+00 1.715241e+00 2.355955e+00 2.146824e+00 2.396945e+00 2.415371e+00 2.675377e+00 3.522303e+00 2.963618e+00 9.939106e-04 1.307835e-01 2.898329e-01 2.217364e-01 3.014286e-01 3.771119e-01 5.380687e-01 4.188723e-01 3.964379e-01 3.934471e-01 4.277023e-01 5.334274e-01 5.848430e-01 1.632789e-04
<GCONST> 8.800870e+01
<MIXTURE> 8 1.140777e-01
<MEAN> 39
 -1.225476e-01 1.256592e+01 -4.000838e+00 -1.248207e+00 -6.350441e+00 -5.707089e+00 -1.105814e+00 -7.566995e-01 -2.434292e+00 -2.436712e-01 -5.146616e+00 4.342552e+00 8.279399e-01 -9.083807e-01 -7.192042e-01 -9.056005e-01 -3.928837e-01 -8.910240e-01 -1.215040e+00 -1.600537e+00 -1.571550e+00 -1.419991e+00 -1.467541e+00 -1.318280e+00 -7.239865e-01 3.113431e-02 9.393872e-02 -1.490951e-01 1.469893e-01 8.971794e-02 1.843012e-01 1.187243e-01 1.016761e-01 1.032499e-01 1.957903e-01 1.729851e-01 2.496095e-01 2.374348e-02 -8.014854e-03
<VARIANCE> 39
 1.412981e+01 3.076665e+01 1.547309e+01 1.403822e+01 1.190059e+01 1.538247e+01 1.901850e+01 2.844801e+01 1.890029e+01 2.411812e+01 1.900521e+01 1.931105e+01 7.398787e-03 3.869346e-01 4.039273e-01 6.038806e-01 8.340927e-01 9.561924e-01 9.534190e-01 9.104890e-01 1.188708e+00 1.050496e+00 1.408477e+00 1.837153e+00 1.908295e+00 3.055657e-04 1.096125e-01 1.474482e-01 1.234403e-01 1.368130e-01 1.819980e-01 1.873049e-01 2.489706e-01 2.525024e-01 2.596960e-01 2.642962e-01 2.961109e-01 2.494058e-01 7.818439e-05
<GCONST> 6.366203e+01
<MIXTURE> 9 4.106558e-02
<MEAN> 39
 -2.397174e+00 1.018707e+01 -6.113891e+00 -4.205987e+00 -6.498246e+00 -6.057008e+00 -7.324928e-01 -1.257577e+00 1.790704e+00 2.419508e+00 3.895597e+00 6.270592e+00 8.571244e-01 -9.873704e-01 -1.999871e-01 -1.922752e-01 1.445493e-01 -2.619815e-01 -3.322892e-01 -9.170564e-01 -9.408219e-01 -1.055029e-01 5.382800e-01 1.417390e+00 1.829448e+00 3.338509e-02 3.055319e-01 -7.591785e-02 3.605256e-01 3.557818e-01 3.434175e-01 3.815693e-01 2.802483e-01 4.243074e-01 2.226890e-01 1.493732e-01 -1.249877e-01 -2.546568e-01 -1.687744e-02
<VARIANCE> 39
 1.816434e+01 3.548750e+01 2.625795e+01 1.824390e+01 2.601208e+01 2.630899e+01 3.370253e+01 3.394320e+01 6.454584e+01 7.772340e+01 7.373603e+01 1.041212e+02 7.284793e-03 6.328848e-01 6.221038e-01 8.649963e-01 1.265608e+00 1.289154e+00 1.172127e+00 1.637321e+00 1.788899e+00 3.415304e+00 4.297687e+00 6.218722e+00 6.555008e+00 3.582595e-04 1.461774e-01 2.078715e-01 2.348473e-01 2.263294e-01 3.668651e-01 3.772676e-01 3.319586e-01 3.544869e-01 5.046896e-01 7.699345e-01 8.265013e-01 1.003681e+00 2.467100e-04
<GCONST> 8.955357e+01
<MIXTURE> 10 2.517922e-01
<MEAN> 39
 -1.472349e+00 1.507212e+01 1.395254e+00 -2.602151e+00 -5.532415e+00 -5.019993e+00 -1.020934e+01 4.631522e-01 -2.349948e-01 -3.704970e+00 4.893380e+00 -3.075536e+00 8.210327e-01 -3.309113e-01 9.144237e-01 -2.781583e-01 5.635608e-01 -3.973499e-01 5.536040e-02 -6.300341e-01 -1.433318e-01 -4.335973e-01 -5.696719e-01 3.842275e-01 -5.847367e-01 1.199277e-02 1.259379e-01 -3.952751e-01 5.737490e-02 -1.753206e-01 -8.713224e-03 1.422752e-01 2.394546e-01 -1.235362e-04 -9.184525e-03 1.917031e-01 -2.646247e-01 8.963653e-02 -9.837311e-04
<VARIANCE> 39
 7.858609e+00 2.788288e+01 1.541166e+01 2.317686e+01 2.009460e+01 2.367483e+01 2.230263e+01 2.338259e+01 2.604299e+01 3.521977e+01 1.812572e+01 1.704490e+01 5.499096e-03 4.231674e-01 8.769633e-01 7.794772e-01 1.418723e+00 9.846314e-01 1.299735e+00 1.369855e+00 1.485233e+00 1.595340e+00 1.640658e+00 1.230312e+00 1.322144e+00 2.612596e-04 5.816854e-02 1.415340e-01 1.434871e-01 2.359194e-01 2.337353e-01 2.274809e-01 2.107152e-01 2.627569e-01 2.251105e-01 2.906220e-01 2.179218e-01 2.281028e-01 3.375584e-05
<GCONST> 6.594476e+01
<STATE> 3
<NUMMIXES> 10
<MIXTURE> 1 9.152292e-02
<MEAN> 39
 -2.188853e+00 1.145286e+01 -5.819469e+00 -3.438351e+00 -8.931520e+00 -8.922926e+00 -6.115880e+00 -4.201894e+00 -4.468537e+00 -3.430456e+00 -4.492188e+00 1.148313e+00 8.819031e-01 -2.190718e-02 4.664284e-02 -3.407315e-02 1.791347e-01 -8.806330e-02 5.745140e-02 -9.978552e-02 -2.029745e-01 -6.836519e-02 -2.072425e-01 4.022820e-02 -1.681907e-02 1.024356e-02 2.341155e-01 1.525652e-01 3.404646e-01 2.069097e-01 4.299310e-01 3.841544e-01 4.858221e-01 4.930895e-01 4.035407e-01 3.595695e-01 3.333980e-01 1.729632e-01 -4.150448e-03
<VARIANCE> 39
 1.394126e+01 3.298840e+01 1.892075e+01 2.011259e+01 1.863424e+01 2.769200e+01 3.145000e+01 3.105893e+01 4.452339e+01 4.506456e+01 6.702084e+01 6.984512e+01 6.514390e-03 3.048507e-01 6.060922e-01 7.551376e-01 1.067104e+00 1.162911e+00 1.237912e+00 1.192544e+00 1.377615e+00 1.095742e+00 1.471715e+00 1.595894e+00 1.596632e+00 1.244036e-04 5.857842e-02 9.885310e-02 9.850319e-02 1.724772e-01 1.674691e-01 2.005481e-01 2.015994e-01 2.392505e-01 2.458676e-01 2.797900e-01 3.699955e-01 3.252562e-01 1.985853e-05
<GCONST> 6.800633e+01
<MIXTURE> 2 6.542785e-02
<MEAN> 39
 -1.927670e+00 8.100611e+00 -5.246782e+00 -2.633933e+00 -7.278829e+00 -7.268559e+00 -4.673195e+00 -4.135695e+00 -4.623911e+00 -3.647347e+00 -5.404565e+00 1.234917e-01 9.069024e-01 1.761457e-01 1.789173e-01 1.750935e-01 2.363720e-01 2.888607e-01 3.226189e-01 2.955143e-01 2.827556e-01 3.142567e-01 1.954400e-01 2.952233e-01 1.165573e-01 2.497113e-04 1.230560e-01 1.939733e-01 2.655492e-01 2.135517e-01 3.324274e-01 2.954493e-01 3.574842e-01 3.517301e-01 3.026899e-01 2.763181e-01 2.245880e-01 1.752579e-01 -1.426133e-03
<VARIANCE> 39
 1.041078e+01 4.712987e+01 1.035484e+01 1.061467e+01 1.747321e+01 2.176669e+01 1.415620e+01 1.796786e+01 1.510150e+01 1.805252e+01 1.951151e+01 2.586469e+01 6.951876e-03 1.253806e-01 2.394243e-01 3.351243e-01 4.143572e-01 5.933322e-01 5.194818e-01 6.332217e-01 6.157155e-01 5.793499e-01 5.300280e-01 5.583695e-01 4.711226e-01 3.877510e-05 1.915902e-02 3.837859e-02 5.287405e-02 6.181245e-02 9.030894e-02 8.345954e-02 8.612825e-02 9.033462e-02 9.318321e-02 8.468539e-02 1.006375e-01 1.019558e-01 4.505869e-06
<GCONST> 3.622849e+01
<MIXTURE> 3 1.190611e-01
<MEAN> 39
 -7.756219e-01 1.061637e+01 -1.481206e+00 -2.466358e-01 -3.667256e+00 -3.454116e+00 -3.756492e+00 1.769749e-01 -2.204816e+00 -8.744684e-01 -6.082016e-01 7.294783e-01 8.991275e-01 1.822324e-01 3.017223e-01 2.621498e-01 3.815633e-01 3.367923e-01 2.925932e-01 3.620255e-01 3.189573e-01 3.460562e-01 2.885310e-01 2.171421e-01 2.214083e-01 1.259908e-03 -2.612654e-02 -1.232916e-01 -1.115010e-01 -1.316838e-01 -9.711299e-02 -1.523767e-01 -7.737621e-02 -1.350483e-01 -5.913778e-02 -5.985973e-02 -7.843661e-02 -9.414420e-02 -1.568640e-03
<VARIANCE> 39
 9.505579e+00 4.531392e+01 9.233540e+00 1.312797e+01 1.811929e+01 2.158739e+01 2.740357e+01 2.163269e+01 1.896252e+01 2.095771e+01 3.402686e+01 3.441429e+01 6.282335e-03 1.221608e-01 2.176378e-01 3.275984e-01 3.973272e-01 5.344917e-01 5.876611e-01 6.158057e-01 5.719274e-01 5.571340e-01 5.830927e-01 6.275421e-01 5.917631e-01 5.680423e-05 2.326707e-02 4.146704e-02 5.888677e-02 7.826860e-02 1.143971e-01 9.203400e-02 1.123891e-01 1.070984e-01 1.242243e-01 1.063689e-01 1.248410e-01 1.007060e-01 5.563603e-06
<GCONST> 4.101723e+01
<MIXTURE> 4 6.682901e-02
<MEAN> 39
 -9.707195e-01 1.329572e+01 -3.327128e+00 -1.631933e+00 -5.820757e+00 -7.176248e+00 -6.071250e+00 -1.669947e+00 -3.556283e+00 -2.175200e+00 -2.417418e+00 8.736631e-01 8.749349e-01 -8.083569e-02 -9.080099e-02 -2.368654e-01 -1.698176e-01 -1.667107e-01 -2.624086e-01 -1.861674e-01 -2.958131e-01 -9.124245e-02 -1.858709e-01 -1.634607e-01 -2.842212e-01 1.121228e-03 1.054073e-02 -1.260408e-02 3.935949e-02 -3.121279e-02 1.976264e-02 1.549818e-02 6.214751e-02 5.022033e-02 7.766187e-02 3.469024e-02 4.079249e-02 -1.439956e-02 -1.400165e-03
<VARIANCE> 39
 1.101278e+01 2.891288e+01 1.788164e+01 1.584826e+01 1.911917e+01 2.222193e+01 2.785170e+01 2.817058e+01 3.088693e+01 3.792648e+01 4.693145e+01 4.297348e+01 6.235415e-03 8.317514e-02 1.739254e-01 2.151759e-01 3.247627e-01 3.746588e-01 4.276993e-01 4.383528e-01 4.391878e-01 4.925802e-01 4.105237e-01 4.381807e-01 4.913484e-01 4.045516e-05 1.565845e-02 2.687353e-02 3.822276e-02 4.787994e-02 5.913923e-02 7.302178e-02 7.770070e-02 8.073124e-02 9.348369e-02 7.476860e-02 7.147428e-02 9.311052e-02 3.730628e-06
<GCONST> 3.470932e+01
<MIXTURE> 5 1.190599e-01
<MEAN> 39
 -7.756301e-01 1.061645e+01 -1.481175e+00 -2.466820e-01 -3.667279e+00 -3.454143e+00 -3.756617e+00 1.769772e-01 -2.204836e+00 -8.745018e-01 -6.080734e-01 7.294098e-01 8.991267e-01 1.822283e-01 3.017222e-01 2.621455e-01 3.815618e-01 3.367869e-01 2.925901e-01 3.620171e-01 3.189562e-01 3.460541e-01 2.885261e-01 2.171372e-01 2.214072e-01 1.260011e-03 -2.612352e-02 -1.232895e-01 -1.114960e-01 -1.316794e-01 -9.710630e-02 -1.523731e-01 -7.737054e-02 -1.350420e-01 -5.913190e-02 -5.985413e-02 -7.843518e-02 -9.414056e-02 -1.568674e-03
<VARIANCE> 39
 9.505586e+00 4.531405e+01 9.233578e+00 1.312792e+01 1.811946e+01 2.158751e+01 2.740410e+01 2.163248e+01 1.896254e+01 2.095816e+01 3.402727e+01 3.441445e+01 6.282337e-03 1.221625e-01 2.176393e-01 3.276021e-01 3.973316e-01 5.344938e-01 5.876684e-01 6.158122e-01 5.719303e-01 5.571433e-01 5.830989e-01 6.275503e-01 5.917701e-01 5.680548e-05 2.326739e-02 4.146688e-02 5.888634e-02 7.826831e-02 1.143968e-01 9.203356e-02 1.123881e-01 1.070971e-01 1.242246e-01 1.063681e-01 1.248414e-01 1.007065e-01 5.563772e-06
<GCONST> 4.101744e+01
<MIXTURE> 6 6.682651e-02
<MEAN> 39
 -9.707052e-01 1.329583e+01 -3.327058e+00 -1.631979e+00 -5.820796e+00 -7.176236e+00 -6.071369e+00 -1.669923e+00 -3.556248e+00 -2.175281e+00 -2.417321e+00 8.734449e-01 8.749332e-01 -8.083698e-02 -9.079471e-02 -2.368661e-01 -1.698173e-01 -1.667074e-01 -2.624061e-01 -1.861687e-01 -2.958140e-01 -9.124699e-02 -1.858739e-01 -1.634658e-01 -2.842262e-01 1.121328e-03 1.054170e-02 -1.260536e-02 3.935993e-02 -3.121237e-02 1.976372e-02 1.549943e-02 6.214877e-02 5.022092e-02 7.766320e-02 3.469217e-02 4.079203e-02 -1.439516e-02 -1.400174e-03
<VARIANCE> 39
 1.101251e+01 2.891288e+01 1.788198e+01 1.584837e+01 1.911925e+01 2.222192e+01 2.785210e+01 2.817077e+01 3.088723e+01 3.792738e+01 4.693162e+01 4.297233e+01 6.235504e-03 8.317605e-02 1.739286e-01 2.151776e-01 3.247661e-01 3.746603e-01 4.277035e-01 4.383570e-01 4.391947e-01 4.925878e-01 4.105286e-01 4.381853e-01 4.913553e-01 4.045622e-05 1.565856e-02 2.687384e-02 3.822292e-02 4.788052e-02 5.913950e-02 7.302236e-02 7.770147e-02 8.073229e-02 9.348498e-02 7.476950e-02 7.147510e-02 9.311134e-02 3.730628e-06
<GCONST> 3.470967e+01
<MIXTURE> 7 6.682791e-02
<MEAN> 39
 -9.706929e-01 1.329580e+01 -3.327088e+00 -1.631963e+00 -5.820785e+00 -7.176238e+00 -6.071343e+00 -1.669904e+00 -3.556309e+00 -2.175252e+00 -2.417389e+00 8.734951e-01 8.749336e-01 -8.083563e-02 -9.079622e-02 -2.368644e-01 -1.698158e-01 -1.667062e-01 -2.624047e-01 -1.861668e-01 -2.958132e-01 -9.124362e-02 -1.858739e-01 -1.634645e-01 -2.842237e-01 1.121290e-03 1.054126e-02 -1.260488e-02 3.935961e-02 -3.121258e-02 1.976331e-02 1.549804e-02 6.214811e-02 5.022000e-02 7.766362e-02 3.469170e-02 4.079282e-02 -1.439737e-02 -1.400170e-03
<VARIANCE> 39
 1.101247e+01 2.891282e+01 1.788175e+01 1.584832e+01 1.911919e+01 2.222186e+01 2.785189e+01 2.817072e+01 3.088702e+01 3.792673e+01 4.693124e+01 4.297208e+01 6.235461e-03 8.317555e-02 1.739269e-01 2.151757e-01 3.247643e-01 3.746582e-01 4.277011e-01 4.383525e-01 4.391911e-01 4.925847e-01 4.105260e-01 4.381828e-01 4.913517e-01 4.045590e-05 1.565852e-02 2.687359e-02 3.822276e-02 4.788012e-02 5.913934e-02 7.302173e-02 7.770086e-02 8.073162e-02 9.348448e-02 7.476886e-02 7.147454e-02 9.311070e-02 3.730628e-06
<GCONST> 3.470940e+01
<MIXTURE> 8 1.025008e-01
<MEAN> 39
 -1.282189e+00 8.432116e+00 -2.170265e+00 -4.986519e-02 -3.242989e+00 -3.558099e+00 -8.891863e-01 -5.816815e-01 -1.449254e+00 -8.250677e-01 -2.786498e+00 2.489330e+00 9.235422e-01 -1.771209e-01 -5.170033e-01 -6.026677e-01 -5.270504e-01 -6.063773e-01 -6.455283e-01 -6.017000e-01 -7.172940e-01 -5.653057e-01 -5.267348e-01 -4.538772e-01 -4.675129e-01 1.374504e-03 -7.299623e-02 -1.370786e-01 -1.656788e-01 -2.003838e-01 -1.919107e-01 -1.873123e-01 -1.864288e-01 -1.699713e-01 -1.767777e-01 -1.691429e-01 -1.120353e-01 -1.619357e-01 -1.275684e-03
<VARIANCE> 39
 8.772371e+00 4.712635e+01 8.065985e+00 9.945609e+00 1.520351e+01 2.202976e+01 1.117819e+01 1.522230e+01 1.506108e+01 1.585874e+01 2.227402e+01 2.722211e+01 5.115562e-03 1.162685e-01 1.689358e-01 2.623602e-01 3.809023e-01 4.759106e-01 5.061254e-01 5.500556e-01 5.162866e-01 5.217552e-01 5.569229e-01 6.719430e-01 5.616079e-01 5.174996e-05 1.843186e-02 4.829413e-02 6.265885e-02 7.183482e-02 9.576556e-02 1.000175e-01 1.019675e-01 1.132397e-01 8.758590e-02 8.784152e-02 1.135673e-01 9.568024e-02 4.954165e-06
<GCONST> 3.550782e+01
<MIXTURE> 9 6.542785e-02
<MEAN> 39
 -1.927670e+00 8.100611e+00 -5.246782e+00 -2.633933e+00 -7.278829e+00 -7.268559e+00 -4.673195e+00 -4.135695e+00 -4.623911e+00 -3.647347e+00 -5.404565e+00 1.234917e-01 9.069024e-01 1.761457e-01 1.789173e-01 1.750935e-01 2.363720e-01 2.888607e-01 3.226189e-01 2.955143e-01 2.827556e-01 3.142567e-01 1.954400e-01 2.952233e-01 1.165573e-01 2.497113e-04 1.230560e-01 1.939733e-01 2.655492e-01 2.135517e-01 3.324274e-01 2.954493e-01 3.574842e-01 3.517301e-01 3.026899e-01 2.763181e-01 2.245880e-01 1.752579e-01 -1.426133e-03
<VARIANCE> 39
 1.041078e+01 4.712987e+01 1.035484e+01 1.061467e+01 1.747321e+01 2.176669e+01 1.415620e+01 1.796786e+01 1.510150e+01 1.805252e+01 1.951151e+01 2.586469e+01 6.951876e-03 1.253806e-01 2.394243e-01 3.351243e-01 4.143572e-01 5.933322e-01 5.194818e-01 6.332217e-01 6.157155e-01 5.793499e-01 5.300280e-01 5.583695e-01 4.711226e-01 3.877510e-05 1.915902e-02 3.837859e-02 5.287405e-02 6.181245e-02 9.030894e-02 8.345954e-02 8.612825e-02 9.033462e-02 9.318321e-02 8.468539e-02 1.006375e-01 1.019558e-01 4.505869e-06
<GCONST> 3.622849e+01
<MIXTURE> 10 2.365054e-01
<MEAN> 39
 -2.141849e+00 1.273998e+01 -6.095496e-01 -1.933628e+00 -3.597081e+00 -4.427116e+00 -6.141155e+00 -1.128640e-01 -1.225500e+00 -2.975756e+00 2.661567e+00 -9.781585e-01 8.915240e-01 1.007978e-02 2.218270e-02 -6.156295e-03 -7.358184e-02 6.990854e-02 -3.677799e-02 6.243143e-02 -3.935753e-03 4.761849e-02 -6.364183e-03 -2.909098e-03 3.461790e-03 9.495004e-05 1.167299e-02 -2.747077e-02 9.764499e-03 -3.542842e-02 1.488300e-04 -1.966354e-02 9.796500e-03 1.088172e-03 7.759254e-03 2.182065e-02 -1.531379e-02 8.745542e-03 -9.310986e-04
<VARIANCE> 39
 6.933718e+00 5.275371e+01 9.303380e+00 8.907884e+00 1.061014e+01 1.599529e+01 2.735953e+01 1.369801e+01 1.723205e+01 2.450671e+01 2.904608e+01 2.269236e+01 6.964018e-03 6.114618e-02 9.146760e-02 1.068376e-01 1.476045e-01 1.547543e-01 1.623437e-01 1.798354e-01 1.962949e-01 2.134310e-01 2.230781e-01 1.580104e-01 1.816572e-01 3.754082e-05 8.993070e-03 1.620672e-02 1.891953e-02 2.338188e-02 2.848433e-02 2.900504e-02 2.882993e-02 3.162346e-02 3.892555e-02 3.868581e-02 2.834453e-02 3.565766e-02 3.730628e-06
<GCONST> 1.092709e+01
<STATE> 4
<NUMMIXES> 10
<MIXTURE> 1 3.521754e-02
<MEAN> 39
 -3.976719e+00 1.049847e+01 -3.396749e+00 -3.852427e+00 -7.506212e+00 -4.652184e+00 5.816491e+00 6.717730e+00 1.846083e+01 1.822881e+01 1.125791e+01 5.436804e+00 9.497564e-01 3.883990e-01 2.783123e-01 1.753441e-01 1.230107e-01 1.734557e-01 8.896194e-03 1.056135e-01 3.776728e-01 -6.799463e-02 -1.794328e-01 -7.060357e-02 -8.231582e-01 2.295935e-03 -5.157376e-02 2.376741e-03 -1.351263e-03 -6.599160e-02 1.127251e-01 -4.622570e-02 1.176925e-02 -8.835416e-02 -9.308832e-02 -2.832699e-02 8.416030e-02 5.714158e-02 -2.234918e-03
<VARIANCE> 39
 1.662333e+01 1.684105e+01 1.630329e+01 2.047284e+01 1.022748e+01 7.127685e+00 1.205326e+01 2.096779e+01 1.530948e+01 6.960008e+00 2.087594e+01 5.688323e+01 2.021470e-03 4.077862e-01 6.468089e-01 7.334366e-01 6.966662e-01 6.435615e-01 6.366494e-01 4.242476e-01 9.244109e-01 7.800834e-01 7.554088e-01 5.404219e-01 1.092111e+00 4.539828e-05 9.001233e-02 9.504769e-02 1.490592e-01 1.569843e-01 9.598522e-02 1.143781e-01 6.573508e-02 1.314994e-01 1.501344e-01 1.487258e-01 7.826330e-02 1.684539e-01 4.058751e-06
<GCONST> 4.527517e+01
<MIXTURE> 2 4.625845e-02
<MEAN> 39
 -4.320738e-01 1.108839e+01 -8.664034e+00 -2.691480e+00 -7.977791e+00 -7.628352e+00 -2.425902e+00 -4.295857e+00 -9.078480e-01 1.184130e-01 2.691436e-01 7.553636e+00 9.026323e-01 3.942142e-01 3.408645e-01 5.401185e-01 6.713535e-01 7.571247e-01 7.379737e-01 6.510676e-01 5.019328e-01 5.818319e-01 5.256048e-01 4.265997e-01 1.499423e-01 -1.199876e-03 1.089784e-01 5.861036e-02 2.456276e-01 1.016878e-01 2.623775e-01 1.390818e-01 1.183959e-01 2.044558e-01 1.348301e-01 1.665814e-01 8.001864e-02 -2.600397e-02 -1.606481e-03
<VARIANCE> 39
 1.708114e+01 3.684156e+01 2.242517e+01 1.505745e+01 1.777880e+01 1.957178e+01 1.542246e+01 2.461032e+01 3.996703e+01 6.658997e+01 1.012425e+02 9.755270e+01 5.966620e-03 2.472779e-01 3.681486e-01 5.306333e-01 8.125581e-01 8.858155e-01 8.957500e-01 9.626381e-01 9.626124e-01 8.153273e-01 1.087255e+00 1.194993e+00 1.452210e+00 4.108984e-05 2.650589e-02 5.095121e-02 9.061889e-02 1.276965e-01 1.304534e-01 1.100090e-01 1.349548e-01 1.604165e-01 1.524770e-01 2.022543e-01 2.288450e-01 1.631032e-01 5.332629e-06
<GCONST> 5.643170e+01
<MIXTURE> 3 1.267213e-01
<MEAN> 39
 2.173002e+00 1.068389e+01 -2.897699e+00 1.194966e+00 -3.596428e+00 -4.387582e+00 -1.278204e+00 -1.101495e+00 -7.850632e-01 -6.032133e-01 -2.607275e+00 1.957497e+00 8.877316e-01 4.149493e-01 1.757703e-01 3.168119e-01 4.747689e-01 4.426318e-01 2.915348e-01 2.612216e-01 2.400866e-01 5.182335e-01 6.231732e-01 3.672237e-01 7.479192e-02 -4.305699e-03 -6.828277e-02 -1.400761e-01 -1.020379e-01 -2.176027e-01 -9.393063e-02 -1.253783e-01 -1.814485e-01 -1.779024e-01 -1.577979e-01 -7.683858e-02 -5.374591e-02 -1.435452e-01 -1.309217e-03
<VARIANCE> 39
 1.098748e+01 4.406326e+01 1.686922e+01 1.102169e+01 2.047555e+01 1.808681e+01 1.942788e+01 1.979783e+01 1.681564e+01 3.147514e+01 3.490174e+01 2.521342e+01 4.920134e-03 2.459362e-01 4.771749e-01 6.411491e-01 6.583991e-01 8.477162e-01 1.121709e+00 1.337162e+00 1.361004e+00 1.081137e+00 1.040344e+00 1.327502e+00 1.188249e+00 6.444717e-05 4.633397e-02 7.721811e-02 1.284182e-01 1.304003e-01 1.487433e-01 2.025403e-01 2.184584e-01 2.383772e-01 1.860915e-01 2.199920e-01 2.107874e-01 1.777759e-01 4.766065e-06
<GCONST> 5.624191e+01
<MIXTURE> 4 8.101336e-02
<MEAN> 39
 1.078540e+00 1.238797e+01 -4.593225e+00 -3.756463e-01 -5.744537e+00 -5.871284e+00 -3.772456e+00 -2.306010e+00 -2.717223e+00 -1.166870e+00 -3.126534e+00 7.499592e-01 8.846011e-01 -1.106121e-01 -2.296098e-01 -3.249539e-01 -4.166873e-01 -5.492514e-02 -3.784573e-01 -1.038002e-01 -3.132073e-01 7.049935e-02 -2.780805e-01 3.710765e-04 -2.957190e-01 -8.829868e-04 -6.935096e-03 -6.610689e-02 1.073302e-01 -1.591059e-01 1.520336e-01 -3.648648e-02 1.313861e-02 7.358070e-02 9.254155e-02 -5.562291e-02 9.724937e-02 -8.498909e-03 -2.026336e-03
<VARIANCE> 39
 1.420230e+01 3.343960e+01 2.167604e+01 1.955050e+01 2.158497e+01 3.222892e+01 2.677836e+01 3.551471e+01 2.416616e+01 3.007348e+01 3.979001e+01 4.879218e+01 6.135390e-03 2.371216e-01 4.417987e-01 7.962633e-01 7.564335e-01 1.081700e+00 1.070559e+00 1.412181e+00 1.111223e+00 1.217417e+00 1.078519e+00 1.266015e+00 1.105562e+00 7.099318e-05 3.413504e-02 8.129726e-02 1.496153e-01 1.773237e-01 1.923595e-01 2.280372e-01 2.930415e-01 2.613374e-01 2.179826e-01 2.430878e-01 2.247824e-01 2.484723e-01 1.010953e-05
<GCONST> 6.271064e+01
<MIXTURE> 5 1.267220e-01
<MEAN> 39
 2.173004e+00 1.068406e+01 -2.897704e+00 1.194991e+00 -3.596519e+00 -4.387625e+00 -1.278199e+00 -1.101460e+00 -7.850322e-01 -6.031951e-01 -2.607201e+00 1.957575e+00 8.877312e-01 4.149479e-01 1.757757e-01 3.168079e-01 4.747678e-01 4.426364e-01 2.915428e-01 2.612238e-01 2.400871e-01 5.182345e-01 6.231817e-01 3.672242e-01 7.479456e-02 -4.305460e-03 -6.828589e-02 -1.400814e-01 -1.020476e-01 -2.176110e-01 -9.393255e-02 -1.253817e-01 -1.814536e-01 -1.779128e-01 -1.578014e-01 -7.683971e-02 -5.375160e-02 -1.435459e-01 -1.309198e-03
<VARIANCE> 39
 1.098772e+01 4.406249e+01 1.686950e+01 1.102174e+01 2.047585e+01 1.808692e+01 1.942782e+01 1.979851e+01 1.681625e+01 3.147645e+01 3.490380e+01 2.521439e+01 4.920200e-03 2.459375e-01 4.771838e-01 6.411620e-01 6.584060e-01 8.477242e-01 1.121730e+00 1.337168e+00 1.361025e+00 1.081151e+00 1.040349e+00 1.327556e+00 1.188294e+00 6.444842e-05 4.633405e-02 7.722059e-02 1.284204e-01 1.304023e-01 1.487462e-01 2.025450e-01 2.184584e-01 2.383832e-01 1.860946e-01 2.199988e-01 2.107939e-01 1.777794e-01 4.766176e-06
<GCONST> 5.624266e+01
<MIXTURE> 6 8.101416e-02
<MEAN> 39
 1.078527e+00 1.238800e+01 -4.593199e+00 -3.756972e-01 -5.744532e+00 -5.871256e+00 -3.772518e+00 -2.305938e+00 -2.717192e+00 -1.166821e+00 -3.126464e+00 7.498579e-01 8.845997e-01 -1.106162e-01 -2.296037e-01 -3.249551e-01 -4.166902e-01 -5.491478e-02 -3.784515e-01 -1.037981e-01 -3.132154e-01 7.050647e-02 -2.780755e-01 3.727289e-04 -2.957178e-01 -8.827042e-04 -6.934574e-03 -6.610747e-02 1.073321e-01 -1.591020e-01 1.520349e-01 -3.648847e-02 1.314007e-02 7.357468e-02 9.254728e-02 -5.562799e-02 9.724763e-02 -8.496409e-03 -2.026395e-03
<VARIANCE> 39
 1.420233e+01 3.343985e+01 2.167643e+01 1.955171e+01 2.158529e+01 3.222951e+01 2.677861e+01 3.551510e+01 2.416677e+01 3.007431e+01 3.979039e+01 4.879310e+01 6.135638e-03 2.371276e-01 4.418200e-01 7.962746e-01 7.564527e-01 1.081713e+00 1.070572e+00 1.412200e+00 1.111235e+00 1.217422e+00 1.078536e+00 1.266044e+00 1.105576e+00 7.100072e-05 3.413583e-02 8.129895e-02 1.496203e-01 1.773297e-01 1.923648e-01 2.280445e-01 2.930431e-01 2.613487e-01 2.179869e-01 2.431008e-01 2.247887e-01 2.484822e-01 1.011049e-05
<GCONST> 6.271167e+01
<MIXTURE> 7 8.101562e-02
<MEAN> 39
 1.078451e+00 1.238811e+01 -4.593102e+00 -3.760242e-01 -5.744604e+00 -5.871358e+00 -3.772673e+00 -2.305743e+00 -2.717022e+00 -1.166814e+00 -3.126445e+00 7.492349e-01 8.845943e-01 -1.106253e-01 -2.296034e-01 -3.249820e-01 -4.167111e-01 -5.489637e-02 -3.784215e-01 -1.038403e-01 -3.132869e-01 7.048701e-02 -2.780493e-01 3.485464e-04 -2.957290e-01 -8.817032e-04 -6.923442e-03 -6.610543e-02 1.073394e-01 -1.590702e-01 1.520504e-01 -3.647020e-02 1.313719e-02 7.355154e-02 9.256789e-02 -5.563318e-02 9.725676e-02 -8.468922e-03 -2.026773e-03
<VARIANCE> 39
 1.420259e+01 3.344115e+01 2.167804e+01 1.955676e+01 2.158690e+01 3.223207e+01 2.677960e+01 3.551646e+01 2.416932e+01 3.007754e+01 3.979047e+01 4.879536e+01 6.136636e-03 2.371513e-01 4.419039e-01 7.963406e-01 7.565200e-01 1.081777e+00 1.070643e+00 1.412291e+00 1.111372e+00 1.217487e+00 1.078631e+00 1.266201e+00 1.105673e+00 7.103520e-05 3.413831e-02 8.130041e-02 1.496392e-01 1.773483e-01 1.923856e-01 2.280681e-01 2.930452e-01 2.613882e-01 2.180039e-01 2.431489e-01 2.248103e-01 2.485268e-01 1.011552e-05
<GCONST> 6.271609e+01
<MIXTURE> 8 5.705418e-02
<MEAN> 39
 1.842121e+00 1.347104e+01 -3.748816e+00 1.580474e+00 -4.736701e+00 -4.129649e+00 -1.419443e+00 -1.782776e+00 -1.599376e+00 8.949064e-01 -3.255578e+00 3.142247e+00 9.081353e-01 -4.981553e-01 -5.188777e-01 -6.088372e-01 -9.833581e-01 -6.352287e-01 -9.554309e-01 -4.738339e-01 -8.957587e-01 -4.376905e-01 -5.781192e-01 -3.297386e-01 -7.190886e-01 -5.998582e-04 -2.164073e-01 -3.150161e-01 -2.568922e-01 -5.173156e-01 -2.398018e-01 -5.001205e-01 -2.237410e-01 -3.385865e-01 -2.388398e-01 -4.031962e-01 -2.292048e-01 -3.047267e-01 -1.141756e-03
<VARIANCE> 39
 1.109694e+01 4.321878e+01 1.662651e+01 1.157740e+01 1.716605e+01 3.314055e+01 1.265176e+01 2.019348e+01 1.619690e+01 1.482091e+01 2.740432e+01 2.834410e+01 3.739307e-03 2.098798e-01 4.703826e-01 3.372707e-01 5.589280e-01 5.576899e-01 9.139803e-01 8.671294e-01 8.998581e-01 8.698542e-01 1.015802e+00 1.569741e+00 9.889711e-01 3.754082e-05 3.404225e-02 9.066128e-02 1.091006e-01 1.035078e-01 8.961771e-02 1.293826e-01 1.467441e-01 1.713426e-01 1.292864e-01 1.543491e-01 1.708459e-01 1.473080e-01 3.793783e-06
<GCONST> 4.828081e+01
<MIXTURE> 9 4.626021e-02
<MEAN> 39
 -4.311854e-01 1.108787e+01 -8.664162e+00 -2.691561e+00 -7.978464e+00 -7.628672e+00 -2.426853e+00 -4.297122e+00 -9.098482e-01 1.156875e-01 2.653699e-01 7.550004e+00 9.026282e-01 3.941932e-01 3.407953e-01 5.400056e-01 6.713039e-01 7.570615e-01 7.378786e-01 6.510916e-01 5.019004e-01 5.817993e-01 5.256255e-01 4.267299e-01 1.500270e-01 -1.201178e-03 1.090140e-01 5.867147e-02 2.457115e-01 1.018208e-01 2.624854e-01 1.391606e-01 1.184737e-01 2.045669e-01 1.349472e-01 1.666605e-01 8.012079e-02 -2.593510e-02 -1.606341e-03
<VARIANCE> 39
 1.708071e+01 3.684194e+01 2.242663e+01 1.505887e+01 1.778072e+01 1.957413e+01 1.542454e+01 2.461606e+01 3.996099e+01 6.658212e+01 1.012314e+02 9.754245e+01 5.967387e-03 2.472782e-01 3.680888e-01 5.306181e-01 8.124731e-01 8.856651e-01 8.957589e-01 9.625851e-01 9.624651e-01 8.153322e-01 1.087171e+00 1.194847e+00 1.452089e+00 4.108507e-05 2.650600e-02 5.096278e-02 9.063429e-02 1.277202e-01 1.304635e-01 1.100277e-01 1.349747e-01 1.604599e-01 1.525076e-01 2.022824e-01 2.289054e-01 1.631399e-01 5.332477e-06
<GCONST> 5.643304e+01
<MIXTURE> 10 3.187219e-01
<MEAN> 39
 -1.629306e+00 1.713634e+01 1.116888e+00 -1.772366e+00 -6.413465e+00 -3.220299e+00 -1.163190e+01 5.283417e-01 5.444103e-01 -5.502742e+00 5.325751e+00 -5.110013e+00 8.655894e-01 2.417158e-02 -1.039139e-01 1.223799e-01 -2.028016e-01 2.984446e-01 -2.173603e-01 1.551579e-01 4.340051e-02 3.464358e-01 1.621416e-01 2.676522e-02 2.066818e-03 -1.486558e-03 3.670380e-02 -1.214829e-01 6.304890e-02 -1.141064e-01 1.366851e-01 -7.932633e-02 1.249185e-01 -2.672561e-02 2.330185e-02 8.951658e-02 -9.766961e-02 1.040367e-01 -2.410488e-03
<VARIANCE> 39
 1.112808e+01 2.384695e+01 1.343263e+01 1.875614e+01 2.121248e+01 2.232738e+01 2.631349e+01 2.226992e+01 2.431595e+01 2.415962e+01 1.560224e+01 1.699012e+01 4.172078e-03 2.307613e-01 2.972507e-01 4.129495e-01 6.316886e-01 4.702004e-01 5.884030e-01 7.390340e-01 7.799153e-01 9.571967e-01 7.813325e-01 6.591360e-01 5.862094e-01 7.992433e-05 5.081044e-02 6.098722e-02 8.831565e-02 1.031809e-01 1.019609e-01 1.458720e-01 1.456776e-01 1.508907e-01 1.690659e-01 1.402864e-01 1.187427e-01 1.073221e-01 8.826668e-06
<GCONST> 4.702009e+01
<STATE> 5
<NUMMIXES> 10
<MIXTURE> 1 1.498940e-02
<MEAN> 39
 -7.601057e+00 3.713256e+00 -9.254225e+00 -3.372333e+00 -1.015849e+01 -8.630048e+00 -5.680646e+00 -5.791265e+00 6.144558e+00 6.689608e+00 1.739408e+01 2.186794e+01 9.786224e-01 4.186411e-01 3.410478e-01 3.520676e-01 3.498307e-01 7.824628e-01 3.896877e-01 2.826047e-01 1.781735e-01 1.042053e+00 5.813822e-01 -1.166082e-01 -2.882898e-01 6.580151e-04 2.730031e-01 4.120444e-01 4.266002e-01 3.121494e-01 7.893830e-01 5.104165e-01 4.128887e-01 1.261366e-01 1.383654e-02 -8.080485e-02 -3.988325e-01 -8.995210e-02 -1.469702e-03
<VARIANCE> 39
 1.356629e+01 3.402172e+00 4.440238e+00 8.694300e+00 3.345144e+01 6.034479e+00 1.222897e+01 9.475411e+00 1.098242e+01 3.409064e+01 3.045689e+01 7.918693e+01 8.178985e-04 6.890903e-01 1.018919e+00 9.076877e-01 8.097361e-01 2.208127e+00 1.536603e+00 1.042731e+00 1.075903e+00 1.361002e+00 3.084890e+00 8.537013e-01 1.531888e+00 3.754082e-05 4.057960e-02 5.845489e-02 8.927127e-02 9.196698e-02 1.637691e-01 1.056662e-01 6.133309e-02 2.010022e-01 1.322689e-01 2.527674e-01 1.114851e-01 2.278624e-01 5.568607e-06
<GCONST> 4.954704e+01
<MIXTURE> 2 6.150794e-02
<MEAN> 39
 1.718222e+00 1.060381e+01 -5.849109e+00 5.276377e-02 -4.464759e+00 -4.142785e+00 -1.714072e-01 3.425810e-01 5.608578e+00 6.634068e+00 7.375713e+00 7.626767e+00 8.816157e-01 2.989191e-01 1.187791e-01 6.679051e-03 1.221708e-01 6.617981e-01 -1.559681e-01 3.036883e-01 2.334496e-01 3.418765e-01 7.252517e-01 4.238851e-01 6.007946e-01 -1.229751e-03 -1.804695e-01 -2.215094e-01 5.320684e-02 -2.485340e-01 -6.997134e-02 -2.486432e-01 -2.029436e-01 -1.571111e-01 -2.081622e-01 -2.346990e-01 -2.476710e-01 -1.555049e-01 -3.370009e-03
<VARIANCE> 39
 2.918073e+01 2.724906e+01 2.176169e+01 2.098980e+01 4.919505e+01 3.274876e+01 2.508718e+01 3.595633e+01 4.725415e+01 6.100649e+01 1.049316e+02 1.257166e+02 8.832784e-03 1.098787e+00 8.567532e-01 1.667018e+00 1.196974e+00 2.502815e+00 2.397259e+00 1.372730e+00 1.178526e+00 1.503051e+00 2.654400e+00 3.298121e+00 2.295851e+00 1.520604e-04 8.676444e-02 1.850655e-01 3.186577e-01 2.220155e-01 3.385687e-01 3.901018e-01 2.603523e-01 2.887556e-01 2.926903e-01 5.272529e-01 3.358173e-01 3.769431e-01 1.348497e-05
<GCONST> 8.237201e+01
<MIXTURE> 3 1.381059e-01
<MEAN> 39
 -9.120122e-03 9.700121e+00 -2.652443e+00 -2.091600e+00 -4.305547e+00 -5.949351e+00 -5.418419e+00 -1.181154e+00 -2.217571e+00 -1.120293e+00 -2.250808e+00 -1.735040e+00 8.505002e-01 5.208442e-01 -2.491560e-01 4.669659e-02 -9.355553e-02 4.600170e-01 1.109722e-01 8.279803e-02 1.444621e-01 1.403704e-01 2.633422e-01 2.986540e-01 -1.932779e-01 -1.548315e-02 2.058736e-01 -1.526430e-02 2.188950e-01 1.880499e-01 2.579884e-01 2.121708e-01 2.350019e-01 5.614640e-02 6.928696e-02 1.966903e-02 1.681054e-01 1.512867e-01 -4.919939e-03
<VARIANCE> 39
 1.401519e+01 4.264313e+01 1.512499e+01 1.709093e+01 2.118928e+01 2.734697e+01 2.742712e+01 2.289887e+01 2.609601e+01 3.090137e+01 2.974479e+01 2.679954e+01 7.209355e-03 5.277480e-01 5.067741e-01 1.084529e+00 8.789716e-01 1.113939e+00 1.347039e+00 1.686031e+00 1.431344e+00 1.785732e+00 2.031983e+00 2.198725e+00 1.685447e+00 1.267319e-04 8.481640e-02 9.510524e-02 1.428785e-01 1.243820e-01 1.732727e-01 2.007839e-01 2.636408e-01 2.754937e-01 2.609683e-01 3.234292e-01 2.565523e-01 2.302557e-01 2.446345e-05
<GCONST> 6.766609e+01
<MIXTURE> 4 8.197921e-02
<MEAN> 39
 1.113804e+00 1.258936e+01 -5.172976e+00 1.696061e-01 -4.241313e+00 -5.976119e+00 -1.328833e+00 -2.167930e+00 1.150188e+00 3.091223e-01 -5.775099e-01 5.663160e+00 8.480185e-01 -1.682816e-01 -7.133276e-01 4.379147e-01 -9.151029e-01 5.200673e-01 -7.074061e-01 -1.825783e-01 -2.004368e-01 -3.367861e-01 -1.886538e-01 2.779730e-01 -3.063263e-01 -8.605785e-03 5.937701e-03 -2.609448e-01 3.367099e-01 -2.392101e-01 7.784098e-02 -7.967404e-02 -1.783960e-01 -2.772731e-02 -2.840199e-01 -1.650866e-01 -1.388885e-01 -4.333063e-01 -5.743707e-03
<VARIANCE> 39
 2.735414e+01 3.114757e+01 2.398616e+01 2.221546e+01 2.367949e+01 2.182120e+01 1.979230e+01 1.707236e+01 2.018494e+01 3.836016e+01 6.055993e+01 7.383855e+01 1.105365e-02 6.198856e-01 5.104885e-01 8.559889e-01 1.731920e+00 1.669865e+00 1.534982e+00 1.887278e+00 1.940229e+00 1.644709e+00 1.452867e+00 2.056473e+00 2.333783e+00 1.029169e-04 1.143902e-01 1.072380e-01 1.666949e-01 2.353330e-01 2.984649e-01 2.772737e-01 3.243213e-01 3.044317e-01 2.797168e-01 3.627346e-01 4.389234e-01 4.371725e-01 1.913320e-05
<GCONST> 7.481674e+01
<MIXTURE> 5 1.381102e-01
<MEAN> 39
 -9.242684e-03 9.700052e+00 -2.652447e+00 -2.091636e+00 -4.305647e+00 -5.949437e+00 -5.418371e+00 -1.181207e+00 -2.217693e+00 -1.120413e+00 -2.250922e+00 -1.734963e+00 8.505017e-01 5.208299e-01 -2.491413e-01 4.670987e-02 -9.357221e-02 4.600050e-01 1.109837e-01 8.280699e-02 1.444612e-01 1.403617e-01 2.633476e-01 2.986734e-01 -1.932953e-01 -1.548348e-02 2.058799e-01 -1.526149e-02 2.189002e-01 1.880468e-01 2.579936e-01 2.121800e-01 2.350058e-01 5.614909e-02 6.929234e-02 1.967857e-02 1.681120e-01 1.512846e-01 -4.920083e-03
<VARIANCE> 39
 1.401544e+01 4.264243e+01 1.512477e+01 1.709071e+01 2.118889e+01 2.734634e+01 2.742710e+01 2.289874e+01 2.609586e+01 3.090097e+01 2.974460e+01 2.679977e+01 7.209247e-03 5.277417e-01 5.067667e-01 1.084504e+00 8.789444e-01 1.113937e+00 1.347004e+00 1.686037e+00 1.431324e+00 1.785706e+00 2.031962e+00 2.198719e+00 1.685407e+00 1.267285e-04 8.481685e-02 9.510370e-02 1.428764e-01 1.243805e-01 1.732700e-01 2.007788e-01 2.636420e-01 2.754912e-01 2.609702e-01 3.234224e-01 2.565511e-01 2.302513e-01 2.446286e-05
<GCONST> 6.766563e+01
<MIXTURE> 6 8.197995e-02
<MEAN> 39
 1.113680e+00 1.258922e+01 -5.173020e+00 1.694542e-01 -4.241396e+00 -5.976064e+00 -1.328786e+00 -2.167898e+00 1.150130e+00 3.091878e-01 -5.771939e-01 5.663518e+00 8.480228e-01 -1.682813e-01 -7.133284e-01 4.378943e-01 -9.151070e-01 5.200532e-01 -7.074023e-01 -1.826117e-01 -2.004648e-01 -3.367832e-01 -1.886401e-01 2.779566e-01 -3.063390e-01 -8.605774e-03 5.951263e-03 -2.609408e-01 3.367124e-01 -2.391928e-01 7.784667e-02 -7.967058e-02 -1.784015e-01 -2.772962e-02 -2.840115e-01 -1.650831e-01 -1.389049e-01 -4.333258e-01 -5.743835e-03
<VARIANCE> 39
 2.735365e+01 3.114775e+01 2.398611e+01 2.221514e+01 2.367956e+01 2.182098e+01 1.979199e+01 1.707138e+01 2.018485e+01 3.835986e+01 6.056105e+01 7.384151e+01 1.105327e-02 6.198799e-01 5.104857e-01 8.559909e-01 1.731879e+00 1.669836e+00 1.534972e+00 1.887233e+00 1.940225e+00 1.644669e+00 1.452882e+00 2.056464e+00 2.333817e+00 1.029166e-04 1.143911e-01 1.072363e-01 1.666989e-01 2.353287e-01 2.984649e-01 2.772643e-01 3.243151e-01 3.044271e-01 2.797150e-01 3.627363e-01 4.389257e-01 4.371793e-01 1.913356e-05
<GCONST> 7.481652e+01
<MIXTURE> 7 8.198005e-02
<MEAN> 39
 1.113508e+00 1.258919e+01 -5.173111e+00 1.694727e-01 -4.241300e+00 -5.976048e+00 -1.328773e+00 -2.167929e+00 1.150348e+00 3.094944e-01 -5.766779e-01 5.664040e+00 8.480240e-01 -1.682908e-01 -7.133204e-01 4.378872e-01 -9.151179e-01 5.200489e-01 -7.074001e-01 -1.825953e-01 -2.004337e-01 -3.367558e-01 -1.885961e-01 2.779488e-01 -3.063045e-01 -8.605117e-03 5.949793e-03 -2.609468e-01 3.367032e-01 -2.392213e-01 7.782380e-02 -7.969186e-02 -1.784025e-01 -2.772480e-02 -2.840233e-01 -1.651043e-01 -1.389370e-01 -4.333471e-01 -5.743653e-03
<VARIANCE> 39
 2.735490e+01 3.114712e+01 2.398661e+01 2.221502e+01 2.368002e+01 2.182105e+01 1.979206e+01 1.707107e+01 2.018459e+01 3.836082e+01 6.056370e+01 7.384705e+01 1.105354e-02 6.198764e-01 5.104923e-01 8.559864e-01 1.731838e+00 1.669855e+00 1.534969e+00 1.887218e+00 1.940198e+00 1.644642e+00 1.452889e+00 2.056507e+00 2.333773e+00 1.029212e-04 1.143925e-01 1.072368e-01 1.666971e-01 2.353330e-01 2.984729e-01 2.772718e-01 3.243158e-01 3.044282e-01 2.797034e-01 3.627388e-01 4.389341e-01 4.371911e-01 1.913308e-05
<GCONST> 7.481682e+01
<MIXTURE> 8 9.700426e-02
<MEAN> 39
 -1.368060e+00 1.313019e+01 -8.588634e+00 -3.096360e+00 -9.230509e+00 -1.200792e+01 -4.923435e+00 -6.164767e+00 -5.177485e+00 -3.981410e+00 -6.452488e+00 5.064589e-02 9.021993e-01 -6.301595e-01 -6.998488e-01 7.633161e-02 -1.618302e+00 3.020049e-01 -1.446154e+00 4.511833e-01 -5.960971e-01 1.175425e-01 -8.603366e-01 2.270677e-02 -1.091411e+00 -2.235725e-03 2.597821e-01 -1.160702e-01 7.411113e-01 -6.523757e-02 6.285699e-01 4.433269e-01 4.058754e-01 6.357721e-01 3.131723e-01 3.350278e-01 3.989767e-01 1.485096e-01 -4.130288e-03
<VARIANCE> 39
 1.172497e+01 2.627626e+01 1.558207e+01 2.025718e+01 2.050846e+01 2.217839e+01 1.669039e+01 2.219079e+01 2.237607e+01 2.200574e+01 3.386395e+01 5.402304e+01 2.991240e-03 2.528595e-01 5.984150e-01 1.084863e+00 1.019182e+00 1.464478e+00 9.891572e-01 1.798336e+00 1.460354e+00 1.450454e+00 1.152347e+00 8.628678e-01 9.161419e-01 4.590580e-05 6.779214e-02 1.639277e-01 1.952022e-01 2.942869e-01 2.216070e-01 2.145760e-01 2.868369e-01 2.289881e-01 2.662694e-01 2.907453e-01 2.793137e-01 2.716043e-01 1.319925e-05
<GCONST> 6.343541e+01
<MIXTURE> 9 6.150911e-02
<MEAN> 39
 1.713556e+00 1.060583e+01 -5.848189e+00 4.900613e-02 -4.471152e+00 -4.144990e+00 -1.699852e-01 3.449389e-01 5.610857e+00 6.640154e+00 7.389145e+00 7.635132e+00 8.817145e-01 2.980368e-01 1.187250e-01 6.701656e-03 1.216120e-01 6.606969e-01 -1.565371e-01 3.037187e-01 2.328268e-01 3.411503e-01 7.245883e-01 4.234442e-01 6.003385e-01 -1.228029e-03 -1.803319e-01 -2.215058e-01 5.290917e-02 -2.484897e-01 -6.970404e-02 -2.484837e-01 -2.029174e-01 -1.572718e-01 -2.078754e-01 -2.345239e-01 -2.479695e-01 -1.555543e-01 -3.371749e-03
<VARIANCE> 39
 2.918942e+01 2.722628e+01 2.175628e+01 2.099723e+01 4.926758e+01 3.274135e+01 2.509390e+01 3.594365e+01 4.728410e+01 6.099760e+01 1.049870e+02 1.257579e+02 8.825878e-03 1.098261e+00 8.565134e-01 1.666330e+00 1.196902e+00 2.503678e+00 2.395360e+00 1.372483e+00 1.177880e+00 1.503270e+00 2.651744e+00 3.294832e+00 2.294025e+00 1.519426e-04 8.679989e-02 1.851357e-01 3.186321e-01 2.220325e-01 3.388219e-01 3.899233e-01 2.604515e-01 2.886066e-01 2.927419e-01 5.271355e-01 3.357570e-01 3.769008e-01 1.348644e-05
<GCONST> 8.236815e+01
<MIXTURE> 10 2.428337e-01
<MEAN> 39
 -2.377516e+00 1.621400e+01 5.954341e-01 -4.858082e+00 -4.148500e+00 -6.195211e+00 -1.016710e+01 -8.633923e-01 1.494978e+00 -4.884563e+00 5.487844e+00 -3.890397e+00 8.772781e-01 -7.792877e-02 -8.680701e-01 5.952986e-01 -1.400407e+00 7.923159e-01 -3.441726e-01 6.901082e-01 1.535369e-01 4.359229e-01 5.462801e-01 -5.612944e-01 6.932469e-01 -3.720419e-03 1.946088e-01 -4.077085e-01 2.731278e-01 -8.213732e-02 5.803560e-02 3.633238e-01 2.722720e-01 2.552821e-01 -1.108690e-01 1.931931e-01 -3.696618e-01 1.402581e-01 -5.305566e-03
<VARIANCE> 39
 9.334284e+00 2.168876e+01 1.488740e+01 1.689578e+01 1.664769e+01 1.993889e+01 1.935864e+01 2.667580e+01 2.999976e+01 2.217329e+01 1.813534e+01 1.487457e+01 5.052669e-03 3.353915e-01 5.868142e-01 6.114981e-01 1.213722e+00 7.872040e-01 1.033729e+00 1.079892e+00 1.300336e+00 1.334699e+00 1.233508e+00 1.064299e+00 8.682528e-01 1.531854e-04 5.865864e-02 1.059986e-01 1.440066e-01 2.179192e-01 1.947382e-01 1.776464e-01 2.284298e-01 2.385994e-01 2.394063e-01 1.901622e-01 1.779435e-01 1.752868e-01 2.813375e-05
<GCONST> 5.937129e+01
<STATE> 6
<NUMMIXES> 10
<MIXTURE> 1 1.376847e-02
<MEAN> 39
 -3.497107e+00 1.121893e+01 -7.055091e+00 -3.526221e+00 -6.949736e+00 -5.251882e+00 2.617295e-01 -5.954320e+00 -4.512250e+00 -3.119792e+00 -1.942724e+00 2.286932e+00 8.662018e-01 4.708731e-01 8.229564e-01 3.506018e-01 -8.432409e-01 1.016621e+00 -4.656200e-01 2.584592e+00 2.715695e+00 2.931421e+00 2.005946e+00 6.777523e-01 3.804856e-01 -2.043763e-02 2.865440e-01 -9.460469e-02 7.658139e-01 -8.960669e-02 7.772005e-01 4.065208e-01 6.473718e-01 1.285613e+00 9.009688e-01 6.766231e-01 2.865588e-01 5.487257e-02 -3.999598e-03
<VARIANCE> 39
 1.933765e+01 2.916653e+01 5.561699e+00 1.436640e+01 2.188309e+01 3.552982e+01 1.781114e+01 2.407372e+01 3.611880e+01 1.410063e+01 1.195280e+01 9.791266e+00 1.168799e-03 1.121404e+00 9.881822e-01 1.746960e+00 6.518513e-01 2.131464e+00 5.416890e-01 5.495389e+00 4.583636e+00 2.879109e+00 2.637446e+00 7.623236e-01 5.886987e-01 1.653183e-04 1.032134e-01 3.677752e-01 4.932095e-02 1.713682e-01 2.058669e-01 1.053537e-01 7.067175e-01 4.660358e-01 5.886573e-01 5.758100e-01 9.403431e-02 1.383156e-01 2.558996e-05
<GCONST> 6.649135e+01
<MIXTURE> 2 7.139950e-02
<MEAN> 39
 -3.062708e+00 1.308389e+01 -6.166027e+00 -6.623387e+00 -5.102888e+00 -1.332442e+01 -9.587306e-01 -3.737445e+00 -2.233237e+00 -3.554400e+00 -5.308492e+00 -1.689403e+00 8.694718e-01 1.984810e-01 -1.302849e+00 1.601252e+00 -2.103119e+00 2.037387e+00 2.721555e-01 1.349321e+00 1.620014e+00 7.671998e-01 5.675336e-01 1.033997e+00 -7.838737e-01 -1.239688e-02 4.506517e-01 -3.517695e-01 5.800580e-01 4.385503e-01 1.240620e-01 1.156522e+00 -7.687709e-02 5.693741e-01 3.516491e-02 2.743079e-01 2.096303e-01 1.825203e-01 -7.631161e-03
<VARIANCE> 39
 8.359902e+00 3.092092e+01 7.917222e+00 1.806300e+01 1.658285e+01 1.625007e+01 2.479765e+01 2.701873e+01 1.710934e+01 1.983034e+01 2.021387e+01 3.205635e+01 4.302362e-03 6.968693e-01 1.198590e+00 2.484573e+00 2.058649e+00 1.678856e+00 2.131796e+00 2.638333e+00 2.185924e+00 2.790981e+00 2.088369e+00 2.155460e+00 1.871619e+00 1.831944e-04 1.285328e-01 2.554116e-01 2.652248e-01 4.511571e-01 5.191548e-01 2.637364e-01 4.388989e-01 3.273979e-01 4.066239e-01 4.158229e-01 3.068519e-01 3.771097e-01 6.279303e-05
<GCONST> 7.710524e+01
<MIXTURE> 3 1.589489e-01
<MEAN> 39
 1.525210e+00 9.915234e+00 -3.027566e+00 -2.675754e+00 -4.249029e+00 -7.671044e+00 -5.255775e+00 -2.236945e+00 -3.270612e+00 -2.769197e+00 -3.355520e+00 -2.199011e+00 8.308694e-01 5.355929e-01 -3.255751e-01 1.222819e+00 2.530639e-01 9.910275e-01 5.381994e-01 1.388386e-01 -8.377445e-02 1.903559e-02 -2.579844e-02 6.867642e-01 -2.615416e-01 -2.417200e-02 2.180757e-02 1.691413e-02 4.223078e-01 5.049634e-01 2.820629e-01 4.987828e-01 1.905702e-01 8.818326e-03 1.212720e-01 1.755694e-01 1.795444e-01 2.709600e-01 -1.002475e-02
<VARIANCE> 39
 2.592463e+01 3.288033e+01 2.144969e+01 3.257984e+01 2.235546e+01 2.457229e+01 2.976161e+01 3.566336e+01 2.859568e+01 2.701756e+01 2.676455e+01 4.046931e+01 7.972855e-03 7.708498e-01 6.549151e-01 1.262938e+00 1.150452e+00 1.643980e+00 1.698254e+00 2.588710e+00 2.095675e+00 2.151747e+00 1.927192e+00 2.283915e+00 2.383748e+00 1.619210e-04 1.429703e-01 1.304005e-01 1.980487e-01 2.536102e-01 2.368953e-01 3.078989e-01 3.952622e-01 4.093576e-01 4.231109e-01 3.259651e-01 3.256860e-01 3.683913e-01 4.928794e-05
<GCONST> 7.842043e+01
<MIXTURE> 4 6.215430e-02
<MEAN> 39
 -2.972307e+00 1.007100e+01 -2.925844e+00 -5.616299e+00 -1.125265e+00 -8.621196e+00 -1.261590e+00 -2.702605e+00 8.040585e-01 1.394008e+00 3.296878e+00 5.803587e+00 8.834388e-01 2.666651e-01 -1.410662e+00 1.415761e+00 -1.774392e+00 9.020627e-01 -1.602136e-01 -1.710368e-01 6.545174e-01 -7.113050e-01 -9.009893e-02 -5.914943e-01 -1.145871e+00 -1.159756e-02 3.586873e-01 -3.207783e-01 4.677185e-01 4.649222e-01 -3.628643e-01 7.036870e-01 -2.587731e-01 1.913740e-01 -1.640533e-01 -2.788868e-01 -2.718670e-01 -4.490028e-01 -7.727727e-03
<VARIANCE> 39
 2.702126e+01 3.591604e+01 2.643662e+01 3.005735e+01 3.382424e+01 4.069965e+01 4.157495e+01 2.748927e+01 2.355567e+01 2.827349e+01 4.615259e+01 9.037666e+01 8.076540e-03 7.158056e-01 1.296773e+00 1.359287e+00 2.649850e+00 2.310318e+00 2.153918e+00 2.291446e+00 2.261374e+00 1.568542e+00 2.902463e+00 2.874615e+00 3.671500e+00 2.351186e-04 1.741197e-01 2.398531e-01 2.414723e-01 3.090969e-01 5.572690e-01 3.805377e-01 6.372983e-01 3.431755e-01 2.839705e-01 3.246458e-01 3.879467e-01 4.924438e-01 5.203834e-05
<GCONST> 8.674919e+01
<MIXTURE> 5 1.589484e-01
<MEAN> 39
 1.525517e+00 9.915283e+00 -3.027686e+00 -2.675687e+00 -4.248967e+00 -7.671204e+00 -5.255980e+00 -2.237065e+00 -3.270580e+00 -2.769255e+00 -3.355628e+00 -2.199059e+00 8.308667e-01 5.355607e-01 -3.255966e-01 1.222850e+00 2.530505e-01 9.910009e-01 5.381595e-01 1.387807e-01 -8.380053e-02 1.899114e-02 -2.582392e-02 6.867615e-01 -2.615342e-01 -2.417136e-02 2.178822e-02 1.692219e-02 4.223219e-01 5.049732e-01 2.820600e-01 4.987973e-01 1.905836e-01 8.825798e-03 1.212848e-01 1.755704e-01 1.795516e-01 2.709622e-01 -1.002479e-02
<VARIANCE> 39
 2.592553e+01 3.287988e+01 2.145094e+01 3.258246e+01 2.235636e+01 2.457329e+01 2.976165e+01 3.566578e+01 2.859657e+01 2.701812e+01 2.676561e+01 4.046935e+01 7.973341e-03 7.708622e-01 6.549106e-01 1.262944e+00 1.150464e+00 1.644009e+00 1.698351e+00 2.588739e+00 2.095751e+00 2.151774e+00 1.927215e+00 2.283988e+00 2.383803e+00 1.619184e-04 1.429694e-01 1.304072e-01 1.980588e-01 2.536279e-01 2.368988e-01 3.079083e-01 3.952598e-01 4.093758e-01 4.231242e-01 3.259696e-01 3.256954e-01 3.683936e-01 4.928850e-05
<GCONST> 7.842140e+01
<MIXTURE> 6 6.215430e-02
<MEAN> 39
 -2.972307e+00 1.007100e+01 -2.925844e+00 -5.616299e+00 -1.125265e+00 -8.621196e+00 -1.261590e+00 -2.702605e+00 8.040585e-01 1.394008e+00 3.296878e+00 5.803587e+00 8.834388e-01 2.666651e-01 -1.410662e+00 1.415761e+00 -1.774392e+00 9.020627e-01 -1.602136e-01 -1.710368e-01 6.545174e-01 -7.113050e-01 -9.009893e-02 -5.914943e-01 -1.145871e+00 -1.159756e-02 3.586873e-01 -3.207783e-01 4.677185e-01 4.649222e-01 -3.628643e-01 7.036870e-01 -2.587731e-01 1.913740e-01 -1.640533e-01 -2.788868e-01 -2.718670e-01 -4.490028e-01 -7.727727e-03
<VARIANCE> 39
 2.702126e+01 3.591604e+01 2.643662e+01 3.005735e+01 3.382424e+01 4.069965e+01 4.157495e+01 2.748927e+01 2.355567e+01 2.827349e+01 4.615259e+01 9.037666e+01 8.076540e-03 7.158056e-01 1.296773e+00 1.359287e+00 2.649850e+00 2.310318e+00 2.153918e+00 2.291446e+00 2.261374e+00 1.568542e+00 2.902463e+00 2.874615e+00 3.671500e+00 2.351186e-04 1.741197e-01 2.398531e-01 2.414723e-01 3.090969e-01 5.572690e-01 3.805377e-01 6.372983e-01 3.431755e-01 2.839705e-01 3.246458e-01 3.879467e-01 4.924438e-01 5.203834e-05
<GCONST> 8.674919e+01
<MIXTURE> 7 6.215430e-02
<MEAN> 39
 -2.972307e+00 1.007100e+01 -2.925844e+00 -5.616299e+00 -1.125265e+00 -8.621196e+00 -1.261590e+00 -2.702605e+00 8.040585e-01 1.394008e+00 3.296878e+00 5.803587e+00 8.834388e-01 2.666651e-01 -1.410662e+00 1.415761e+00 -1.774392e+00 9.020627e-01 -1.602136e-01 -1.710368e-01 6.545174e-01 -7.113050e-01 -9.009893e-02 -5.914943e-01 -1.145871e+00 -1.159756e-02 3.586873e-01 -3.207783e-01 4.677185e-01 4.649222e-01 -3.628643e-01 7.036870e-01 -2.587731e-01 1.913740e-01 -1.640533e-01 -2.788868e-01 -2.718670e-01 -4.490028e-01 -7.727727e-03
<VARIANCE> 39
 2.702126e+01 3.591604e+01 2.643662e+01 3.005735e+01 3.382424e+01 4.069965e+01 4.157495e+01 2.748927e+01 2.355567e+01 2.827349e+01 4.615259e+01 9.037666e+01 8.076540e-03 7.158056e-01 1.296773e+00 1.359287e+00 2.649850e+00 2.310318e+00 2.153918e+00 2.291446e+00 2.261374e+00 1.568542e+00 2.902463e+00 2.874615e+00 3.671500e+00 2.351186e-04 1.741197e-01 2.398531e-01 2.414723e-01 3.090969e-01 5.572690e-01 3.805377e-01 6.372983e-01 3.431755e-01 2.839705e-01 3.246458e-01 3.879467e-01 4.924438e-01 5.203834e-05
<GCONST> 8.674919e+01
<MIXTURE> 8 7.399079e-02
<MEAN> 39
 -2.261289e+00 1.178047e+01 -5.019978e+00 -3.857077e+00 -5.362273e+00 -7.001115e+00 2.949453e+00 3.109629e+00 1.133202e+01 1.514903e+01 1.236594e+01 9.757476e+00 8.916113e-01 1.481912e-01 -9.144645e-01 1.872503e-01 -5.795534e-01 7.125596e-01 -1.802016e-01 -1.004443e-01 2.014309e-02 -1.034637e+00 -8.809623e-01 -1.504868e+00 -1.154534e+00 -3.008195e-02 2.722683e-01 -3.278183e-01 1.929635e-01 1.710947e-01 1.605410e-01 5.022885e-01 -1.241897e-01 -4.454935e-02 -5.858896e-01 -1.039829e+00 -6.398286e-01 -6.101251e-01 -1.492006e-02
<VARIANCE> 39
 1.869913e+01 1.597832e+01 3.064017e+01 9.439387e+00 1.946260e+01 2.072270e+01 3.414557e+01 3.630971e+01 6.076803e+01 3.852121e+01 3.442640e+01 1.058734e+02 4.934043e-03 1.650675e+00 1.530601e+00 2.191750e+00 1.289869e+00 2.093315e+00 1.613737e+00 2.329768e+00 2.136891e+00 3.028069e+00 4.820131e+00 3.764803e+00 3.216704e+00 2.999857e-04 2.556017e-01 2.374210e-01 4.074084e-01 1.923031e-01 2.888913e-01 3.721982e-01 3.307467e-01 3.634904e-01 4.522882e-01 6.237645e-01 3.718337e-01 8.936419e-01 1.212919e-04
<GCONST> 8.758420e+01
<MIXTURE> 9 7.140064e-02
<MEAN> 39
 -3.062021e+00 1.307821e+01 -6.166776e+00 -6.625076e+00 -5.101572e+00 -1.332801e+01 -9.607736e-01 -3.742187e+00 -2.238131e+00 -3.554129e+00 -5.311857e+00 -1.692226e+00 8.695284e-01 1.993547e-01 -1.302602e+00 1.603145e+00 -2.102091e+00 2.037001e+00 2.721872e-01 1.347460e+00 1.619550e+00 7.657099e-01 5.672508e-01 1.033486e+00 -7.836908e-01 -1.239831e-02 4.508328e-01 -3.511227e-01 5.805780e-01 4.394726e-01 1.238758e-01 1.156779e+00 -7.719345e-02 5.696162e-01 3.533696e-02 2.743910e-01 2.100317e-01 1.829063e-01 -7.639181e-03
<VARIANCE> 39
 8.361454e+00 3.090291e+01 7.920177e+00 1.805671e+01 1.657989e+01 1.624444e+01 2.477285e+01 2.700923e+01 1.711147e+01 1.983298e+01 2.021673e+01 3.204932e+01 4.301867e-03 6.963596e-01 1.198244e+00 2.484020e+00 2.058914e+00 1.679394e+00 2.131180e+00 2.636173e+00 2.185084e+00 2.789516e+00 2.086119e+00 2.153516e+00 1.870950e+00 1.830267e-04 1.285613e-01 2.553052e-01 2.652916e-01 4.512802e-01 5.191741e-01 2.637169e-01 4.385200e-01 3.272881e-01 4.064218e-01 4.156817e-01 3.067772e-01 3.768440e-01 6.281095e-05
<GCONST> 7.709459e+01
<MIXTURE> 10 2.650808e-01
<MEAN> 39
 -9.967111e-01 1.346534e+01 2.332290e+00 -4.885325e+00 -3.121873e+00 -5.143926e+00 -8.294207e+00 -2.047927e-01 5.525219e-01 -3.533713e+00 4.391342e+00 -2.912826e+00 8.410279e-01 7.934874e-01 -1.060935e+00 7.954618e-01 -3.201440e-01 7.364464e-01 6.868285e-01 1.239987e+00 3.277620e-01 3.338661e-01 4.225200e-01 -9.433510e-01 3.578775e-01 -2.575900e-02 1.366563e-01 -1.645974e-01 2.306784e-02 6.394863e-01 1.808477e-01 4.835429e-01 3.059662e-01 4.852434e-02 -1.454515e-01 -3.513973e-04 -2.721639e-01 -2.219110e-02 -1.034104e-02
<VARIANCE> 39
 9.846899e+00 3.310003e+01 1.172017e+01 3.001939e+01 1.387043e+01 1.676716e+01 2.382932e+01 1.586271e+01 2.769197e+01 2.433153e+01 1.553579e+01 1.386746e+01 6.211647e-03 4.838341e-01 1.065930e+00 1.636381e+00 1.604980e+00 1.411591e+00 1.210085e+00 2.003150e+00 1.957869e+00 1.707987e+00 2.207536e+00 1.748006e+00 2.176674e+00 2.073254e-04 9.722401e-02 1.303252e-01 1.358554e-01 2.540296e-01 2.088927e-01 2.027342e-01 2.194560e-01 2.268385e-01 3.104499e-01 2.461029e-01 2.688495e-01 1.910424e-01 5.778583e-05
<GCONST> 6.870686e+01
<STATE> 7
<NUMMIXES> 10
<MIXTURE> 1 2.511372e-03
<MEAN> 39
 8.476555e-01 5.282425e+00 -1.583972e+00 -3.607472e+00 1.042219e+00 -3.109098e+00 4.396908e+00 3.026509e+00 -1.275370e+00 8.788236e+00 -2.793755e+00 2.192968e+01 9.287014e-01 1.603690e+00 -1.087423e+00 4.593990e+00 2.297583e+00 4.973626e+00 2.645091e+00 4.822660e+00 2.933518e+00 -2.084281e+00 3.186303e-01 -4.827400e+00 -5.125526e+00 -6.578010e-02 -7.779143e-01 -2.137823e-01 7.693989e-01 1.822076e+00 1.248995e+00 1.337588e+00 6.930964e-01 -2.808371e-01 2.111797e-01 4.407384e-01 9.598374e-01 -1.510898e+00 -1.877849e-02
<VARIANCE> 39
 4.638619e+00 8.793840e-01 7.410307e+00 5.986339e-01 5.607768e+00 4.411897e+00 7.988221e+00 1.905864e+00 5.190098e+00 4.285940e-01 1.502290e+01 8.114872e+00 8.963257e-04 5.963625e-01 6.740531e-02 4.745111e-01 2.600978e+00 1.582401e+00 1.986912e+00 1.894980e-01 9.779929e-01 2.629544e-01 2.124687e+00 6.498296e-01 1.686569e+00 3.339303e-04 8.103730e-02 3.204699e-03 1.053115e-01 1.067043e-02 8.391976e-02 4.991100e-02 1.952349e-01 1.751702e-02 9.025490e-02 4.984413e-03 3.549173e-01 2.749678e-01 4.120293e-05
<GCONST> 2.071992e+01
<MIXTURE> 2 6.771996e-02
<MEAN> 39
 5.192688e-01 1.191379e+01 -3.179134e+00 -8.299401e+00 -2.381305e+00 -8.973544e+00 1.737541e+00 3.494260e+00 2.010457e+00 3.761142e+00 1.906575e+00 1.324915e+00 8.230115e-01 9.369339e-01 -1.163630e+00 1.704651e+00 1.900001e-01 1.999104e+00 2.141140e+00 8.712780e-01 1.177160e+00 -1.514940e-01 -5.121162e-01 -3.732429e-01 -1.483593e+00 -5.621462e-02 -2.875552e-01 -2.749846e-01 1.049312e-01 9.643940e-01 1.716323e-01 9.679919e-01 -1.988624e-01 -3.752813e-01 -3.131298e-01 -3.554255e-01 7.114305e-02 4.388579e-01 -2.232201e-02
<VARIANCE> 39
 1.216487e+01 3.091739e+01 1.702653e+01 3.275067e+01 2.635100e+01 2.292977e+01 3.378601e+01 4.190328e+01 4.751007e+01 4.336467e+01 3.569025e+01 6.808339e+01 5.598805e-03 1.594737e+00 1.878198e+00 2.266265e+00 3.249271e+00 2.200622e+00 3.340886e+00 4.561227e+00 5.260927e+00 5.578013e+00 5.526067e+00 6.193730e+00 5.920996e+00 7.736309e-04 2.509413e-01 4.068236e-01 2.221752e-01 4.542780e-01 4.249426e-01 3.714640e-01 5.449607e-01 7.062524e-01 7.222415e-01 6.358154e-01 6.115509e-01 6.335067e-01 2.220803e-04
<GCONST> 9.844838e+01
<MIXTURE> 3 1.789688e-01
<MEAN> 39
 2.771731e+00 9.099569e+00 -7.980043e-01 -1.758111e+00 -1.008240e+00 -5.226568e+00 -3.131650e+00 -2.073790e+00 -2.000603e+00 -1.464142e+00 -1.211290e+00 -1.539621e+00 8.007060e-01 6.238596e-01 -4.157309e-01 1.602569e+00 1.381900e+00 1.198179e+00 1.363194e+00 5.520056e-01 9.262304e-02 1.187025e-01 2.192650e-01 1.207429e-01 -3.706466e-01 -4.419504e-02 -4.619778e-01 -1.518236e-01 1.811029e-01 5.554034e-01 6.721450e-02 3.929565e-01 1.129681e-01 1.915863e-01 1.349867e-01 1.267019e-01 2.157092e-01 2.935548e-01 -1.616692e-02
<VARIANCE> 39
 1.776437e+01 3.852052e+01 2.084234e+01 2.628289e+01 2.434681e+01 2.557964e+01 3.097924e+01 3.065145e+01 2.562219e+01 2.309864e+01 2.785497e+01 4.259600e+01 6.216565e-03 1.057004e+00 1.039550e+00 2.050360e+00 1.685442e+00 1.694403e+00 1.978427e+00 2.826411e+00 2.277135e+00 1.965744e+00 2.217568e+00 3.492786e+00 3.042197e+00 3.533686e-04 1.583584e-01 1.857112e-01 2.887211e-01 3.459662e-01 3.722946e-01 4.045280e-01 4.452699e-01 4.326046e-01 3.554827e-01 3.879041e-01 4.158257e-01 4.272338e-01 1.339389e-04
<GCONST> 8.447897e+01
<MIXTURE> 4 6.680006e-02
<MEAN> 39
 -1.980385e+00 7.684152e+00 1.607444e+00 -1.181629e+01 1.849529e-01 -6.355443e+00 -3.964328e+00 2.014296e+00 -2.768059e-01 -1.387536e+00 -1.307667e+00 -2.239110e+00 8.638170e-01 9.078707e-01 -2.318680e+00 1.870279e+00 -3.737554e-01 -3.514248e-01 2.293941e+00 -3.104796e-02 4.261363e-01 2.856292e-01 -2.656022e-01 -2.702130e-01 1.283614e-01 -1.441834e-02 2.141350e-01 -2.303218e-03 -2.688692e-01 1.206613e+00 -6.048999e-01 3.832931e-01 1.048962e-01 -4.159720e-01 1.023922e-01 -8.833105e-02 -1.936256e-02 1.374411e-01 -3.824811e-03
<VARIANCE> 39
 1.324471e+01 3.996535e+01 2.346208e+01 2.528629e+01 2.481791e+01 3.408564e+01 2.995632e+01 2.752810e+01 2.376694e+01 2.261333e+01 3.169332e+01 2.109020e+01 6.351423e-03 9.242426e-01 2.093648e+00 2.151316e+00 2.121655e+00 2.983317e+00 2.825756e+00 4.301796e+00 3.714355e+00 2.839846e+00 4.167172e+00 4.388000e+00 3.131769e+00 3.285627e-04 1.587716e-01 2.751539e-01 2.416537e-01 4.672708e-01 3.057712e-01 4.389296e-01 5.157722e-01 5.564978e-01 4.041804e-01 4.465978e-01 3.719133e-01 4.081723e-01 7.102679e-05
<GCONST> 8.795672e+01
<MIXTURE> 5 1.789686e-01
<MEAN> 39
 2.771827e+00 9.099479e+00 -7.981331e-01 -1.758042e+00 -1.008227e+00 -5.226667e+00 -3.131746e+00 -2.074037e+00 -2.000726e+00 -1.464090e+00 -1.211401e+00 -1.539552e+00 8.007070e-01 6.238415e-01 -4.157396e-01 1.602606e+00 1.381908e+00 1.198162e+00 1.363153e+00 5.519550e-01 9.260368e-02 1.186808e-01 2.192391e-01 1.207307e-01 -3.706995e-01 -4.419512e-02 -4.619895e-01 -1.518234e-01 1.811213e-01 5.554069e-01 6.721994e-02 3.929770e-01 1.129928e-01 1.916181e-01 1.349995e-01 1.267039e-01 2.157183e-01 2.935570e-01 -1.616730e-02
<VARIANCE> 39
 1.776416e+01 3.852043e+01 2.084236e+01 2.628291e+01 2.434717e+01 2.557950e+01 3.097886e+01 3.065293e+01 2.562225e+01 2.309849e+01 2.785516e+01 4.259643e+01 6.216657e-03 1.057003e+00 1.039528e+00 2.050340e+00 1.685427e+00 1.694392e+00 1.978442e+00 2.826439e+00 2.277146e+00 1.965745e+00 2.217622e+00 3.492852e+00 3.042213e+00 3.533691e-04 1.583569e-01 1.857094e-01 2.887297e-01 3.459683e-01 3.722979e-01 4.045372e-01 4.452731e-01 4.326315e-01 3.554878e-01 3.879041e-01 4.158324e-01 4.272367e-01 1.339396e-04
<GCONST> 8.447920e+01
<MIXTURE> 6 6.679811e-02
<MEAN> 39
 -1.980278e+00 7.684192e+00 1.607515e+00 -1.181626e+01 1.849203e-01 -6.355143e+00 -3.964483e+00 2.014443e+00 -2.766652e-01 -1.387426e+00 -1.307465e+00 -2.239062e+00 8.638168e-01 9.078606e-01 -2.318655e+00 1.870254e+00 -3.737311e-01 -3.513961e-01 2.293935e+00 -3.101447e-02 4.261039e-01 2.856499e-01 -2.656103e-01 -2.702704e-01 1.284013e-01 -1.441865e-02 2.141154e-01 -2.295073e-03 -2.688708e-01 1.206596e+00 -6.048869e-01 3.832814e-01 1.049007e-01 -4.159862e-01 1.023735e-01 -8.834083e-02 -1.938282e-02 1.374258e-01 -3.825014e-03
<VARIANCE> 39
 1.324412e+01 3.996609e+01 2.346202e+01 2.528695e+01 2.481739e+01 3.408411e+01 2.995591e+01 2.752754e+01 2.376704e+01 2.261302e+01 3.169370e+01 2.109032e+01 6.351269e-03 9.242414e-01 2.093669e+00 2.151319e+00 2.121674e+00 2.983264e+00 2.825761e+00 4.301859e+00 3.714368e+00 2.839877e+00 4.167281e+00 4.388099e+00 3.131715e+00 3.285740e-04 1.587625e-01 2.751556e-01 2.416499e-01 4.672640e-01 3.057682e-01 4.389338e-01 5.157627e-01 5.564917e-01 4.041729e-01 4.465994e-01 3.719230e-01 4.081635e-01 7.103071e-05
<GCONST> 8.795662e+01
<MIXTURE> 7 6.680431e-02
<MEAN> 39
 -1.980571e+00 7.684487e+00 1.607735e+00 -1.181669e+01 1.847083e-01 -6.355771e+00 -3.964612e+00 2.014347e+00 -2.767371e-01 -1.387398e+00 -1.307559e+00 -2.238859e+00 8.638206e-01 9.078940e-01 -2.318808e+00 1.870280e+00 -3.738455e-01 -3.515316e-01 2.293958e+00 -3.089450e-02 4.262985e-01 2.856653e-01 -2.654455e-01 -2.703314e-01 1.283580e-01 -1.441823e-02 2.141641e-01 -2.336137e-03 -2.688987e-01 1.206685e+00 -6.048954e-01 3.833234e-01 1.049278e-01 -4.159590e-01 1.023700e-01 -8.836176e-02 -1.935515e-02 1.374046e-01 -3.825356e-03
<VARIANCE> 39
 1.324450e+01 3.996356e+01 2.346254e+01 2.528344e+01 2.481567e+01 3.408603e+01 2.995773e+01 2.752840e+01 2.376687e+01 2.261299e+01 3.169221e+01 2.108981e+01 6.351124e-03 9.242155e-01 2.093584e+00 2.151298e+00 2.121651e+00 2.983080e+00 2.825619e+00 4.301630e+00 3.714151e+00 2.839873e+00 4.166880e+00 4.387901e+00 3.131660e+00 3.285588e-04 1.587816e-01 2.751653e-01 2.416615e-01 4.672587e-01 3.057746e-01 4.389314e-01 5.157651e-01 5.564925e-01 4.041964e-01 4.465857e-01 3.719067e-01 4.081587e-01 7.103131e-05
<GCONST> 8.795612e+01
<MIXTURE> 8 4.988002e-02
<MEAN> 39
 -5.355519e+00 7.536710e+00 -7.691885e-01 -1.157585e+01 1.262269e+00 -7.474725e+00 -7.333570e-01 3.757305e+00 1.416590e+00 5.757791e+00 5.782764e+00 3.459559e+00 8.816224e-01 5.147004e-01 -3.373088e+00 1.323122e+00 -1.851139e+00 -5.502889e-01 2.948211e+00 3.022028e-01 5.319395e-01 -9.247948e-01 -1.080016e+00 -1.399896e+00 -7.249783e-01 -7.694486e-03 4.025115e-01 -5.798769e-01 -1.799165e-01 1.244370e+00 -1.033685e+00 5.930403e-01 2.102969e-01 -8.021098e-01 -3.593777e-01 -6.459477e-01 -6.638014e-01 -1.134367e-01 -2.546980e-03
<VARIANCE> 39
 1.914759e+01 1.506845e+01 3.721505e+01 1.872682e+01 2.127033e+01 2.829878e+01 6.662612e+01 2.529341e+01 5.610672e+01 1.968812e+01 2.255366e+01 9.529380e+01 7.222892e-03 7.921817e-01 1.450435e+00 3.394068e+00 1.029519e+00 2.883269e+00 2.660929e+00 4.337434e+00 3.217184e+00 5.492255e+00 7.293539e+00 5.228940e+00 4.310929e+00 4.600079e-04 1.572322e-01 1.653215e-01 3.700989e-01 4.876491e-01 6.909885e-01 4.294979e-01 6.030166e-01 3.004277e-01 1.090680e+00 3.867966e-01 2.940645e-01 5.286542e-01 2.832452e-05
<GCONST> 9.117151e+01
<MIXTURE> 9 6.773637e-02
<MEAN> 39
 5.264003e-01 1.190182e+01 -3.167419e+00 -8.281101e+00 -2.386403e+00 -8.978213e+00 1.714112e+00 3.471060e+00 1.997751e+00 3.772834e+00 1.923174e+00 1.350082e+00 8.231718e-01 9.401404e-01 -1.158375e+00 1.707342e+00 1.984928e-01 1.994494e+00 2.135679e+00 8.628633e-01 1.169246e+00 -1.584722e-01 -5.169180e-01 -3.825152e-01 -1.488642e+00 -5.630595e-02 -2.883523e-01 -2.731526e-01 1.044410e-01 9.646550e-01 1.718996e-01 9.670125e-01 -1.959309e-01 -3.724342e-01 -3.100476e-01 -3.536617e-01 7.067108e-02 4.367989e-01 -2.236955e-02
<VARIANCE> 39
 1.217360e+01 3.088773e+01 1.700351e+01 3.272161e+01 2.635628e+01 2.292649e+01 3.365168e+01 4.189814e+01 4.748344e+01 4.344600e+01 3.576125e+01 6.820121e+01 5.603221e-03 1.595098e+00 1.869532e+00 2.266131e+00 3.238042e+00 2.195126e+00 3.332740e+00 4.553502e+00 5.253158e+00 5.572251e+00 5.534112e+00 6.197939e+00 5.930936e+00 7.737505e-04 2.511376e-01 4.055855e-01 2.219779e-01 4.545748e-01 4.247510e-01 3.707416e-01 5.436124e-01 7.039776e-01 7.189393e-01 6.348525e-01 6.114954e-01 6.321064e-01 2.221581e-04
<GCONST> 9.841594e+01
<MIXTURE> 10 2.538119e-01
<MEAN> 39
 2.098997e+00 1.138408e+01 3.658939e+00 -2.315681e+00 -2.326015e+00 -3.388028e+00 -6.241069e+00 -2.097688e-01 3.002343e-01 -1.692979e+00 2.735111e+00 -9.136644e-01 7.600437e-01 5.182506e-01 -5.887888e-01 9.850979e-01 1.100370e+00 1.025016e+00 9.538187e-01 9.356736e-01 -1.824911e-01 -2.502950e-01 1.970689e-01 -4.871351e-01 4.076726e-01 -4.016074e-02 -2.850294e-01 -7.982161e-02 -2.166619e-01 4.184445e-01 2.414813e-01 2.305845e-01 1.285913e-01 -3.382087e-02 -8.883734e-02 -9.677111e-02 -1.188204e-01 -1.247376e-01 -9.788651e-03
<VARIANCE> 39
 1.718634e+01 3.395345e+01 1.829971e+01 4.960873e+01 1.830023e+01 2.156632e+01 2.838793e+01 2.807974e+01 2.933520e+01 3.081166e+01 2.303287e+01 2.069136e+01 8.733242e-03 1.107256e+00 8.725122e-01 1.362249e+00 1.088117e+00 1.374032e+00 1.755815e+00 2.752579e+00 2.185528e+00 2.102424e+00 2.077648e+00 1.790051e+00 1.860362e+00 4.048698e-04 9.671246e-02 1.901570e-01 1.829086e-01 3.393325e-01 2.391031e-01 2.877640e-01 3.252670e-01 3.817255e-01 3.354745e-01 3.424859e-01 2.638755e-01 2.756246e-01 1.165144e-04
<GCONST> 7.826839e+01
<STATE> 8
<NUMMIXES> 10
<MIXTURE> 1 3.292678e-03
<MEAN> 39
 2.573210e+00 8.299327e+00 2.786677e+00 1.327125e+00 6.361732e+00 -8.375240e+00 8.047724e+00 -1.092414e-01 -1.974537e+00 6.338675e+00 -3.127082e+00 5.175508e+00 8.276420e-01 -8.152671e-01 -9.639741e-01 4.374903e+00 3.736554e+00 5.807187e+00 2.989572e+00 4.513080e+00 3.157556e+00 7.842124e-01 2.112441e+00 -3.253056e-01 -1.803550e+00 -1.152287e-01 -9.620746e-01 -1.334027e-01 -1.825647e-01 6.600038e-01 -5.364332e-01 9.113963e-01 -3.226428e-01 2.369361e-01 4.920898e-01 1.916682e-01 1.419940e+00 8.477578e-01 -1.368373e-02
<VARIANCE> 39
 4.382815e+00 1.292212e+01 1.741391e+01 1.455960e+01 1.534777e+01 4.142518e+01 4.021554e+00 2.730205e+01 5.471028e+00 5.316471e+00 2.195433e+01 1.747279e+01 3.083440e-03 7.199445e-01 2.166666e-01 2.917472e-01 1.041470e+00 6.417133e-01 2.519332e+00 1.815577e-01 6.529769e-01 5.960571e-01 3.316012e-01 1.273101e+00 1.128066e+01 7.685201e-04 6.231166e-03 1.741127e-02 1.561729e-01 2.343363e-01 3.683649e-01 3.338691e-01 4.499660e-01 3.945038e-01 1.701474e-02 2.685264e-01 1.826082e-01 1.196236e-01 3.132616e-04
<GCONST> 5.157027e+01
<MIXTURE> 2 3.571173e-02
<MEAN> 39
 -1.629543e+00 6.030162e+00 3.275355e+00 -8.116842e+00 2.948254e-01 -3.623580e+00 5.588490e-01 3.331312e+00 -5.496632e-01 -4.061231e-01 3.227168e+00 -1.094361e+00 7.533933e-01 -2.711357e-01 -3.064185e+00 1.327268e+00 2.568956e+00 2.209656e-01 3.537800e+00 9.928286e-01 1.203482e+00 7.599679e-01 1.607537e-02 1.657761e+00 9.800502e-01 -6.725483e-02 -1.203819e-01 -1.200920e-01 -7.900401e-01 1.022241e+00 -4.186929e-02 -2.196665e-01 -1.531283e-01 -3.121854e-01 3.024569e-01 -1.136604e-01 -2.495211e-01 4.453266e-01 -9.342371e-03
<VARIANCE> 39
 2.223744e+01 3.725268e+01 3.750414e+01 6.795467e+01 4.090145e+01 4.614221e+01 7.993043e+01 5.689386e+01 4.172583e+01 3.724621e+01 4.642212e+01 5.837411e+01 1.431602e-02 5.133781e+00 2.403611e+00 1.873163e+00 3.370200e+00 8.806940e+00 4.730864e+00 3.412786e+00 3.386109e+00 3.784302e+00 3.840459e+00 3.716223e+00 4.592482e+00 2.621852e-03 4.827119e-01 3.130854e-01 5.048875e-01 1.140848e+00 8.056586e-01 7.314318e-01 1.362417e+00 1.522786e+00 9.723961e-01 9.029248e-01 6.709515e-01 6.182925e-01 2.295510e-04
<GCONST> 1.116845e+02
<MIXTURE> 3 1.784568e-01
<MEAN> 39
 3.434919e+00 9.526602e+00 4.070531e+00 2.380852e+00 -1.353893e+00 -4.235090e+00 -4.537602e+00 -3.282689e+00 -2.844511e+00 -8.671125e-01 -6.648334e-01 -5.667874e-01 6.840736e-01 -1.193543e+00 -1.436812e+00 1.464340e+00 2.157807e+00 1.683621e+00 2.318660e+00 9.052930e-01 8.943098e-01 3.024955e-01 4.764123e-01 4.353526e-01 -7.560480e-02 -9.655127e-02 -7.834913e-01 -5.527704e-01 -5.244692e-01 -1.586333e-02 2.569641e-01 5.235691e-01 5.726192e-01 6.966674e-01 5.013011e-01 2.913262e-01 2.133012e-01 2.594464e-01 -2.489374e-02
<VARIANCE> 39
 1.843065e+01 3.362929e+01 1.896126e+01 2.318812e+01 1.929065e+01 2.285856e+01 2.443012e+01 3.540284e+01 2.638956e+01 2.121934e+01 3.124560e+01 3.258215e+01 1.087670e-02 1.184032e+00 1.490579e+00 1.776065e+00 2.373212e+00 1.562202e+00 2.329846e+00 2.313493e+00 2.886547e+00 2.623097e+00 3.225304e+00 2.703905e+00 2.609461e+00 1.242428e-03 2.164470e-01 1.870969e-01 2.916043e-01 3.242433e-01 3.292724e-01 3.747030e-01 4.806712e-01 5.827233e-01 4.419923e-01 4.561726e-01 4.317886e-01 4.880562e-01 9.471549e-05
<GCONST> 8.701921e+01
<MIXTURE> 4 9.299483e-02
<MEAN> 39
 2.022631e+00 9.677321e+00 4.915564e+00 -4.593234e+00 -6.672873e-01 -2.220232e-01 -4.408822e+00 -1.972401e-01 9.716052e-01 -2.364779e+00 3.783045e-01 -1.137841e+00 7.472701e-01 5.052520e-01 -5.856897e-01 8.188396e-01 1.781714e+00 4.199230e-01 1.393237e+00 2.183046e-01 -1.003352e-01 -1.607341e-01 -3.030443e-01 -1.125935e-01 3.659590e-01 -4.587018e-02 -5.696430e-01 -1.406550e-02 -7.326210e-01 1.497316e-01 -2.287709e-01 -5.486243e-01 1.342968e-01 8.250308e-02 5.255833e-02 1.603857e-01 1.405509e-01 3.568919e-02 -3.102960e-03
<VARIANCE> 39
 1.674423e+01 4.256263e+01 3.288288e+01 2.849455e+01 2.217961e+01 2.161187e+01 2.680326e+01 3.295208e+01 3.126220e+01 4.138277e+01 3.237434e+01 2.670555e+01 1.156660e-02 1.139796e+00 2.122303e+00 1.925545e+00 2.907729e+00 3.183878e+00 2.531908e+00 3.212835e+00 2.366532e+00 2.351834e+00 2.298218e+00 2.778916e+00 2.580570e+00 1.650192e-03 2.511364e-01 2.786281e-01 5.201144e-01 5.782005e-01 4.297232e-01 3.866004e-01 5.153999e-01 5.631574e-01 4.723378e-01 6.634288e-01 5.851117e-01 5.464861e-01 3.578202e-04
<GCONST> 9.435567e+01
<MIXTURE> 5 1.784568e-01
<MEAN> 39
 3.434919e+00 9.526602e+00 4.070531e+00 2.380852e+00 -1.353893e+00 -4.235090e+00 -4.537602e+00 -3.282689e+00 -2.844511e+00 -8.671125e-01 -6.648334e-01 -5.667874e-01 6.840736e-01 -1.193543e+00 -1.436812e+00 1.464340e+00 2.157807e+00 1.683621e+00 2.318660e+00 9.052930e-01 8.943098e-01 3.024955e-01 4.764123e-01 4.353526e-01 -7.560480e-02 -9.655127e-02 -7.834913e-01 -5.527704e-01 -5.244692e-01 -1.586333e-02 2.569641e-01 5.235691e-01 5.726192e-01 6.966674e-01 5.013011e-01 2.913262e-01 2.133012e-01 2.594464e-01 -2.489374e-02
<VARIANCE> 39
 1.843065e+01 3.362929e+01 1.896126e+01 2.318812e+01 1.929065e+01 2.285856e+01 2.443012e+01 3.540284e+01 2.638956e+01 2.121934e+01 3.124560e+01 3.258215e+01 1.087670e-02 1.184032e+00 1.490579e+00 1.776065e+00 2.373212e+00 1.562202e+00 2.329846e+00 2.313493e+00 2.886547e+00 2.623097e+00 3.225304e+00 2.703905e+00 2.609461e+00 1.242428e-03 2.164470e-01 1.870969e-01 2.916043e-01 3.242433e-01 3.292724e-01 3.747030e-01 4.806712e-01 5.827233e-01 4.419923e-01 4.561726e-01 4.317886e-01 4.880562e-01 9.471549e-05
<GCONST> 8.701921e+01
<MIXTURE> 6 9.299444e-02
<MEAN> 39
 2.022861e+00 9.678047e+00 4.915685e+00 -4.592807e+00 -6.671818e-01 -2.219185e-01 -4.408689e+00 -1.971838e-01 9.717507e-01 -2.364892e+00 3.784595e-01 -1.137893e+00 7.472565e-01 5.051511e-01 -5.856023e-01 8.187593e-01 1.781788e+00 4.201306e-01 1.393231e+00 2.183724e-01 -1.003060e-01 -1.607890e-01 -3.030716e-01 -1.125957e-01 3.660012e-01 -4.587582e-02 -5.697097e-01 -1.411323e-02 -7.326053e-01 1.496595e-01 -2.287856e-01 -5.486119e-01 1.342406e-01 8.250777e-02 5.256639e-02 1.603889e-01 1.405768e-01 3.568627e-02 -3.104094e-03
<VARIANCE> 39
 1.674282e+01 4.255989e+01 3.288208e+01 2.849251e+01 2.217887e+01 2.161066e+01 2.680237e+01 3.295272e+01 3.126302e+01 4.138319e+01 3.237413e+01 2.670527e+01 1.156608e-02 1.139811e+00 2.122103e+00 1.925544e+00 2.907758e+00 3.183442e+00 2.531805e+00 3.212783e+00 2.366452e+00 2.351902e+00 2.298116e+00 2.778862e+00 2.580463e+00 1.650328e-03 2.511051e-01 2.786471e-01 5.200912e-01 5.781450e-01 4.297076e-01 3.865892e-01 5.153638e-01 5.631553e-01 4.723514e-01 6.634142e-01 5.851249e-01 5.465030e-01 3.578531e-04
<GCONST> 9.435481e+01
<MIXTURE> 7 9.299517e-02
<MEAN> 39
 2.023032e+00 9.678557e+00 4.915468e+00 -4.592360e+00 -6.669175e-01 -2.218721e-01 -4.408677e+00 -1.975555e-01 9.713498e-01 -2.365267e+00 3.782593e-01 -1.138118e+00 7.472474e-01 5.051106e-01 -5.854785e-01 8.187028e-01 1.781723e+00 4.202680e-01 1.393154e+00 2.183539e-01 -1.002822e-01 -1.607952e-01 -3.030824e-01 -1.125726e-01 3.659935e-01 -4.587606e-02 -5.697519e-01 -1.413975e-02 -7.325726e-01 1.495637e-01 -2.288266e-01 -5.486265e-01 1.342140e-01 8.253770e-02 5.260938e-02 1.604195e-01 1.406010e-01 3.571589e-02 -3.102584e-03
<VARIANCE> 39
 1.674192e+01 4.255700e+01 3.288242e+01 2.848886e+01 2.217897e+01 2.161032e+01 2.680141e+01 3.295231e+01 3.126192e+01 4.138047e+01 3.237157e+01 2.670421e+01 1.156560e-02 1.139728e+00 2.121826e+00 1.925496e+00 2.907669e+00 3.183036e+00 2.531641e+00 3.212660e+00 2.366341e+00 2.351882e+00 2.297998e+00 2.778804e+00 2.580361e+00 1.650254e-03 2.510774e-01 2.786523e-01 5.200804e-01 5.780817e-01 4.297087e-01 3.865895e-01 5.153522e-01 5.631611e-01 4.723557e-01 6.634004e-01 5.850875e-01 5.465057e-01 3.578622e-04
<GCONST> 9.435326e+01
<MIXTURE> 8 8.629367e-02
<MEAN> 39
 -8.297772e-01 3.971791e+00 -1.595246e-01 -9.938231e+00 -2.623357e+00 8.154130e-01 1.492765e+00 4.565816e+00 3.100872e+00 -1.117414e+00 -2.888452e+00 -1.220219e+00 7.485591e-01 4.495091e-01 -3.031316e+00 3.699085e-01 1.041601e+00 -5.086504e-01 2.756759e+00 1.713831e+00 -1.263554e+00 -1.405022e+00 -1.196649e+00 -2.440112e+00 -1.944331e-01 -2.919022e-02 -2.109714e-03 1.052465e-01 -3.077181e-01 9.789963e-01 -3.457387e-02 -4.942062e-01 -1.445421e-01 -6.211053e-01 -5.192630e-01 3.496177e-01 5.022438e-01 1.506030e-01 3.716444e-03
<VARIANCE> 39
 1.404910e+01 3.086508e+01 2.784604e+01 4.747907e+01 2.753047e+01 3.664242e+01 4.833913e+01 3.981689e+01 5.433689e+01 5.355754e+01 2.903666e+01 2.786808e+01 2.327049e-02 1.276763e+00 2.250613e+00 1.894058e+00 1.471934e+00 3.781290e+00 3.068932e+00 3.475682e+00 3.171199e+00 4.709303e+00 6.594052e+00 3.124240e+00 6.700646e+00 1.397076e-03 2.282111e-01 2.840907e-01 4.691165e-01 5.646060e-01 3.110510e-01 5.544916e-01 4.665139e-01 5.069948e-01 1.548268e+00 1.246723e+00 8.018895e-01 8.765729e-01 1.530495e-04
<GCONST> 1.014194e+02
<MIXTURE> 9 3.594385e-02
<MEAN> 39
 -1.669263e+00 6.000837e+00 3.227484e+00 -8.247970e+00 3.138331e-01 -3.599519e+00 6.430151e-01 3.400039e+00 -4.855904e-01 -3.668937e-01 3.220571e+00 -1.034829e+00 7.544647e-01 -2.437052e-01 -3.073428e+00 1.330744e+00 2.546855e+00 2.065905e-01 3.549587e+00 9.917540e-01 1.183634e+00 7.455102e-01 -2.076596e-03 1.652616e+00 9.713420e-01 -6.672655e-02 -1.127434e-01 -1.182034e-01 -7.884104e-01 1.037838e+00 -4.808862e-02 -2.286820e-01 -1.627947e-01 -3.297350e-01 2.924820e-01 -1.221754e-01 -2.496309e-01 4.444785e-01 -9.254348e-03
<VARIANCE> 39
 2.223951e+01 3.721497e+01 3.788966e+01 6.780738e+01 4.126379e+01 4.660804e+01 8.080379e+01 5.726778e+01 4.178740e+01 3.761190e+01 4.650633e+01 5.866091e+01 1.425558e-02 5.090320e+00 2.413865e+00 1.883284e+00 3.400766e+00 8.889829e+00 4.763094e+00 3.426980e+00 3.378660e+00 3.806235e+00 3.821026e+00 3.729779e+00 4.606096e+00 2.617130e-03 4.818067e-01 3.131223e-01 5.098620e-01 1.137076e+00 8.073604e-01 7.327589e-01 1.378828e+00 1.541371e+00 9.747443e-01 9.063200e-01 6.691145e-01 6.160426e-01 2.288149e-04
<GCONST> 1.118048e+02
<MIXTURE> 10 2.028597e-01
<MEAN> 39
 4.320790e+00 1.191837e+01 1.748026e+00 4.254910e+00 3.555304e+00 -2.688861e+00 -1.917620e+00 -7.850072e-01 -1.245540e+00 -1.904746e+00 -2.135548e+00 -3.455031e+00 6.635191e-01 -3.676114e-01 -7.059745e-01 9.701407e-01 1.767583e+00 1.167351e+00 6.477909e-01 5.193601e-01 -4.822341e-01 -4.510579e-02 -1.996767e-01 -6.039740e-02 3.125770e-01 -5.318119e-02 -5.681251e-01 -4.420442e-01 -1.607515e-01 -2.576574e-01 -2.717305e-01 5.621784e-02 -1.359037e-01 1.576156e-01 2.518657e-01 2.697669e-01 3.989091e-01 2.852614e-01 -1.233751e-02
<VARIANCE> 39
 1.038473e+01 3.746944e+01 2.274425e+01 2.363749e+01 3.735311e+01 2.348814e+01 4.361375e+01 2.412300e+01 3.021065e+01 2.844794e+01 4.128542e+01 3.598125e+01 1.389046e-02 6.731457e-01 8.167706e-01 1.756264e+00 1.566240e+00 1.432490e+00 2.009848e+00 2.292022e+00 2.136828e+00 1.866781e+00 2.068542e+00 2.328013e+00 2.092442e+00 1.234770e-03 2.156259e-01 2.042701e-01 4.379832e-01 3.231713e-01 4.227889e-01 3.689103e-01 5.716969e-01 3.947661e-01 3.835430e-01 4.455954e-01 5.325708e-01 5.008479e-01 1.284163e-04
<GCONST> 8.627162e+01
<STATE> 9
<NUMMIXES> 10
<MIXTURE> 1 1.100600e-03
<MEAN> 39
 4.844635e+00 6.502184e+00 5.489759e+00 -6.934719e+00 1.237313e+00 -2.717209e-01 -3.433850e+00 -4.740067e+00 5.554954e+00 5.807104e+00 4.965543e+00 1.641859e+00 7.163223e-01 -2.643139e+00 2.510746e-01 -2.082787e-02 -1.576040e+00 1.420223e+00 -4.593254e-01 4.571488e+00 6.017898e+00 2.246231e+00 4.412834e+00 5.814682e+00 2.697193e+00 3.370085e-02 -1.015484e+00 1.484888e-01 -2.429043e-02 1.881267e-01 8.282022e-01 1.798963e-01 1.235311e+00 1.124780e+00 3.129605e-01 1.140435e+00 1.573010e+00 1.693619e+00 9.292741e-03
<VARIANCE> 39
 4.872061e-01 8.793840e-01 4.467797e-01 5.986339e-01 4.655360e-01 5.547996e-01 5.233102e-01 5.238749e-01 4.623668e-01 4.285940e-01 4.554256e-01 4.065517e-01 8.178985e-04 2.131719e-02 2.467501e-02 2.295795e-02 3.262999e-02 2.705516e-02 3.277762e-02 3.157425e-02 3.330883e-02 3.002589e-02 2.830696e-02 2.829966e-02 2.573832e-02 3.754082e-05 3.006852e-03 3.204699e-03 3.548016e-03 5.152391e-03 4.554176e-03 5.507925e-03 5.410463e-03 5.677049e-03 5.208369e-03 4.984413e-03 4.887285e-03 4.422382e-03 3.730628e-06
<GCONST> -7.391187e+01
<MIXTURE> 2 5.621798e-02
<MEAN> 39
 -5.840501e+00 1.317328e+00 4.799900e+00 6.363268e+00 4.879405e+00 5.962918e+00 2.742075e+00 4.438138e+00 2.154000e-02 2.501062e+00 2.984327e+00 3.055096e-01 2.993190e-01 -2.522143e+00 -2.893256e+00 -3.986386e-01 1.419746e+00 1.998196e+00 2.920150e+00 2.764156e+00 3.420121e+00 2.258303e+00 1.941580e+00 1.379568e+00 8.538194e-01 -1.133365e-01 3.304993e-01 5.083095e-01 -3.643076e-01 -4.481048e-01 -3.853423e-01 -6.895654e-01 -1.425297e-01 -2.650380e-01 7.272274e-02 -1.613754e-01 -2.539920e-01 -4.868216e-02 3.261619e-02
<VARIANCE> 39
 1.866786e+01 2.469927e+01 9.598174e+00 1.685957e+01 1.935526e+01 1.618250e+01 1.875542e+01 2.566052e+01 3.817751e+01 2.699587e+01 4.610707e+01 2.397055e+01 3.062471e-02 1.360397e+00 1.481769e+00 1.511212e+00 1.548946e+00 1.796250e+00 2.395552e+00 1.827210e+00 2.625438e+00 2.034881e+00 2.781708e+00 2.843109e+00 3.397848e+00 1.893007e-03 2.993422e-01 4.076376e-01 2.571886e-01 4.525401e-01 3.568389e-01 2.806398e-01 4.023183e-01 5.044798e-01 5.314519e-01 4.252757e-01 4.478656e-01 2.303425e-01 4.591819e-04
<GCONST> 8.799625e+01
<MIXTURE> 3 1.433403e-01
<MEAN> 39
 2.946901e-02 5.550170e+00 5.589394e+00 6.575675e+00 3.723266e+00 1.087940e+00 -1.258834e+00 -1.044323e+00 -1.662077e+00 -5.165138e-01 -4.156123e-01 -1.451170e-01 5.031872e-01 -2.047251e+00 -2.355192e+00 4.103277e-01 1.408204e+00 1.866404e+00 2.477071e+00 1.614990e+00 1.632212e+00 9.806613e-01 6.925524e-01 2.222279e-01 1.077477e-01 -1.184611e-01 -1.899679e-01 -1.844221e-01 -5.965455e-01 -5.374150e-01 -2.676125e-01 -1.271746e-01 2.039654e-01 3.862059e-01 4.067142e-01 3.211356e-01 1.511756e-01 1.036981e-01 -6.438144e-04
<VARIANCE> 39
 2.060369e+01 3.652319e+01 1.631006e+01 2.280167e+01 2.469489e+01 2.581068e+01 3.338412e+01 3.175378e+01 3.504707e+01 3.262897e+01 3.779870e+01 3.192753e+01 2.848440e-02 1.023546e+00 1.450120e+00 2.247182e+00 1.852733e+00 2.117926e+00 2.259083e+00 2.844824e+00 3.060380e+00 3.151141e+00 3.198847e+00 3.478397e+00 4.055707e+00 1.984004e-03 1.753193e-01 2.963059e-01 2.901831e-01 3.721862e-01 4.030315e-01 4.512996e-01 5.480609e-01 4.952734e-01 4.604068e-01 5.345270e-01 4.314819e-01 4.589285e-01 5.872198e-04
<GCONST> 9.385423e+01
<MIXTURE> 4 8.284455e-02
<MEAN> 39
 7.750298e-01 7.268922e+00 3.884196e+00 -1.150830e+00 2.036572e+00 2.011403e+00 -1.731727e+00 -1.744784e-01 -3.119138e-01 -3.915640e+00 -1.256819e-01 -8.497086e-01 6.810629e-01 -7.935503e-01 -9.359968e-01 -1.796537e-01 8.723453e-01 4.340304e-02 3.780904e-01 3.134350e-01 2.025916e-02 4.924853e-01 5.786585e-01 5.951084e-01 7.087116e-01 -2.626276e-02 -4.900177e-01 3.411898e-02 -6.916832e-01 -5.043123e-01 -4.271238e-01 -7.888836e-01 3.918937e-02 1.381038e-01 3.237821e-01 5.635223e-01 1.224240e-01 1.749864e-02 9.431804e-03
<VARIANCE> 39
 1.622161e+01 5.010162e+01 4.124066e+01 5.429102e+01 3.973778e+01 4.202473e+01 6.601003e+01 4.326403e+01 3.959598e+01 4.187791e+01 3.781764e+01 3.251564e+01 1.802579e-02 1.208037e+00 2.946698e+00 2.041291e+00 3.198652e+00 2.416387e+00 4.066689e+00 2.484633e+00 3.895037e+00 3.556973e+00 3.795152e+00 2.589244e+00 3.344929e+00 3.355706e-03 2.617651e-01 3.696014e-01 5.824874e-01 7.632096e-01 7.197086e-01 6.113995e-01 1.156447e+00 8.343566e-01 8.218008e-01 8.492416e-01 9.845074e-01 9.120386e-01 3.235256e-04
<GCONST> 1.062398e+02
<MIXTURE> 5 1.433404e-01
<MEAN> 39
 2.942067e-02 5.550012e+00 5.589413e+00 6.575813e+00 3.723420e+00 1.088073e+00 -1.258578e+00 -1.044119e+00 -1.661889e+00 -5.164253e-01 -4.156348e-01 -1.453359e-01 5.031857e-01 -2.047238e+00 -2.355193e+00 4.103836e-01 1.408243e+00 1.866433e+00 2.477090e+00 1.614997e+00 1.632187e+00 9.806204e-01 6.925078e-01 2.221523e-01 1.076986e-01 -1.184603e-01 -1.899573e-01 -1.844126e-01 -5.965382e-01 -5.374258e-01 -2.676249e-01 -1.271834e-01 2.039365e-01 3.861840e-01 4.066913e-01 3.211259e-01 1.511819e-01 1.037143e-01 -6.434331e-04
<VARIANCE> 39
 2.060353e+01 3.652433e+01 1.631012e+01 2.280240e+01 2.469629e+01 2.581124e+01 3.338604e+01 3.175387e+01 3.504782e+01 3.262996e+01 3.779932e+01 3.192831e+01 2.848539e-02 1.023580e+00 1.450125e+00 2.247341e+00 1.852826e+00 2.118039e+00 2.259138e+00 2.844827e+00 3.060333e+00 3.151167e+00 3.198934e+00 3.478748e+00 4.055937e+00 1.984068e-03 1.753224e-01 2.963082e-01 2.901967e-01 3.721854e-01 4.030474e-01 4.513126e-01 5.480901e-01 4.952676e-01 4.604128e-01 5.345353e-01 4.314952e-01 4.589323e-01 5.872261e-04
<GCONST> 9.385529e+01
<MIXTURE> 6 8.284558e-02
<MEAN> 39
